{"classes": [0, 1], "dtrees": [{"children_left": [1, 2, 3, 4, 5, 6, 7, -1, 9, -1, 11, -1, -1, 14, 15, -1, 17, -1, 19, -1, -1, 22, 23, -1, 25, 26, -1, 28, -1, -1, -1, 32, -1, -1, 35, -1, 37, 38, 39, -1, 41, 42, -1, -1, -1, -1, 47, -1, 49, -1, -1, 52, 53, -1, 55, -1, 57, -1, 59, -1, -1, 62, -1, 64, -1, 66, -1, 68, 69, 70, -1, -1, -1, 74, 75, -1, -1, -1, 79, -1, 81, 82, -1, 84, -1, -1, 87, -1, 89, -1, -1, 92, 93, 94, 95, -1, 97, -1, 99, -1, 101, -1, -1, 104, -1, 106, 107, 108, 109, -1, 111, -1, -1, -1, -1, 116, -1, -1, 119, 120, -1, 122, -1, 124, -1, -1, 127, -1, 129, 130, -1, 132, -1, 134, -1, -1, -1, 138, 139, 140, 141, -1, 143, -1, -1, -1, 147, 148, 149, 150, -1, -1, -1, 154, 155, -1, 157, 158, 159, -1, -1, -1, -1, -1, 165, 166, 167, 168, -1, -1, -1, -1, -1, 174, 175, -1, 177, -1, -1, 180, 181, -1, 183, -1, -1, 186, 187, -1, 189, 190, -1, -1, -1, -1, 195, 196, 197, 198, -1, 200, -1, 202, -1, 204, -1, 206, -1, -1, 209, 210, 211, -1, 213, 214, -1, 216, -1, -1, -1, 220, 221, -1, -1, 224, -1, -1, 227, 228, 229, 230, -1, 232, -1, -1, 235, 236, -1, -1, -1, 240, -1, 242, 243, 244, 245, -1, 247, -1, 249, -1, -1, 252, 253, -1, -1, -1, -1, -1, 259, 260, 261, 262, -1, 264, 265, -1, -1, -1, 269, 270, -1, -1, -1, -1, 275, 276, 277, -1, -1, -1, -1, 282, 283, 284, -1, 286, -1, -1, 289, -1, 291, -1, -1, 294, 295, 296, -1, -1, 299, -1, -1, 302, 303, -1, 305, 306, -1, -1, -1, -1, 311, 312, 313, -1, 315, -1, 317, 318, 319, 320, -1, -1, -1, -1, 325, -1, -1, 328, 329, 330, -1, 332, 333, 334, -1, -1, -1, 338, -1, 340, -1, 342, -1, -1, 345, 346, 347, -1, 349, -1, -1, 352, 353, -1, -1, -1, 357, 358, -1, 360, -1, -1, 363, 364, 365, -1, -1, -1, -1, 370, 371, 372, 373, -1, -1, -1, 377, 378, 379, 380, 381, -1, -1, -1, 385, -1, -1, -1, -1, 390, 391, -1, -1, -1, 395, 396, 397, 398, 399, 400, -1, -1, 403, 404, 405, 406, -1, 408, -1, 410, 411, -1, -1, -1, -1, -1, 417, 418, -1, 420, -1, -1, -1, 424, -1, 426, 427, 428, 429, -1, 431, -1, -1, -1, -1, -1, 437, 438, 439, 440, -1, 442, -1, 444, -1, -1, 447, -1, 449, 450, 451, 452, 453, -1, -1, 456, 457, -1, -1, -1, -1, -1, -1, -1, 465, 466, 467, 468, 469, -1, -1, -1, -1, -1, -1, -1, 477, 478, 479, -1, 481, 482, -1, 484, -1, -1, -1, 488, 489, -1, 491, 492, -1, 494, -1, 496, -1, 498, -1, 500, -1, -1, -1, 504, -1, -1, 507, 508, 509, -1, 511, -1, -1, 514, 515, 516, -1, 518, -1, -1, 521, -1, 523, -1, -1, -1, 527, 528, 529, -1, -1, -1, 533, 534, 535, 536, -1, 538, 539, -1, -1, 542, 543, -1, -1, -1, -1, -1, -1], "children_right": [194, 91, 78, 51, 34, 13, 8, -1, 10, -1, 12, -1, -1, 21, 16, -1, 18, -1, 20, -1, -1, 31, 24, -1, 30, 27, -1, 29, -1, -1, -1, 33, -1, -1, 36, -1, 46, 45, 40, -1, 44, 43, -1, -1, -1, -1, 48, -1, 50, -1, -1, 61, 54, -1, 56, -1, 58, -1, 60, -1, -1, 63, -1, 65, -1, 67, -1, 73, 72, 71, -1, -1, -1, 77, 76, -1, -1, -1, 80, -1, 86, 83, -1, 85, -1, -1, 88, -1, 90, -1, -1, 137, 118, 103, 96, -1, 98, -1, 100, -1, 102, -1, -1, 105, -1, 115, 114, 113, 110, -1, 112, -1, -1, -1, -1, 117, -1, -1, 126, 121, -1, 123, -1, 125, -1, -1, 128, -1, 136, 131, -1, 133, -1, 135, -1, -1, -1, 173, 146, 145, 142, -1, 144, -1, -1, -1, 164, 153, 152, 151, -1, -1, -1, 163, 156, -1, 162, 161, 160, -1, -1, -1, -1, -1, 172, 171, 170, 169, -1, -1, -1, -1, -1, 179, 176, -1, 178, -1, -1, 185, 182, -1, 184, -1, -1, 193, 188, -1, 192, 191, -1, -1, -1, -1, 310, 281, 208, 199, -1, 201, -1, 203, -1, 205, -1, 207, -1, -1, 226, 219, 212, -1, 218, 215, -1, 217, -1, -1, -1, 223, 222, -1, -1, 225, -1, -1, 258, 239, 234, 231, -1, 233, -1, -1, 238, 237, -1, -1, -1, 241, -1, 257, 256, 251, 246, -1, 248, -1, 250, -1, -1, 255, 254, -1, -1, -1, -1, -1, 274, 273, 268, 263, -1, 267, 266, -1, -1, -1, 272, 271, -1, -1, -1, -1, 280, 279, 278, -1, -1, -1, -1, 293, 288, 285, -1, 287, -1, -1, 290, -1, 292, -1, -1, 301, 298, 297, -1, -1, 300, -1, -1, 309, 304, -1, 308, 307, -1, -1, -1, -1, 394, 327, 314, -1, 316, -1, 324, 323, 322, 321, -1, -1, -1, -1, 326, -1, -1, 369, 344, 331, -1, 337, 336, 335, -1, -1, -1, 339, -1, 341, -1, 343, -1, -1, 356, 351, 348, -1, 350, -1, -1, 355, 354, -1, -1, -1, 362, 359, -1, 361, -1, -1, 368, 367, 366, -1, -1, -1, -1, 389, 376, 375, 374, -1, -1, -1, 388, 387, 384, 383, 382, -1, -1, -1, 386, -1, -1, -1, -1, 393, 392, -1, -1, -1, 476, 475, 436, 423, 402, 401, -1, -1, 416, 415, 414, 407, -1, 409, -1, 413, 412, -1, -1, -1, -1, -1, 422, 419, -1, 421, -1, -1, -1, 425, -1, 435, 434, 433, 430, -1, 432, -1, -1, -1, -1, -1, 464, 463, 446, 441, -1, 443, -1, 445, -1, -1, 448, -1, 462, 461, 460, 455, 454, -1, -1, 459, 458, -1, -1, -1, -1, -1, -1, -1, 474, 473, 472, 471, 470, -1, -1, -1, -1, -1, -1, -1, 506, 487, 480, -1, 486, 483, -1, 485, -1, -1, -1, 503, 490, -1, 502, 493, -1, 495, -1, 497, -1, 499, -1, 501, -1, -1, -1, 505, -1, -1, 526, 513, 510, -1, 512, -1, -1, 525, 520, 517, -1, 519, -1, -1, 522, -1, 524, -1, -1, -1, 532, 531, 530, -1, -1, -1, 548, 547, 546, 537, -1, 541, 540, -1, -1, 545, 544, -1, -1, -1, -1, -1, -1], "threshold": [0.5, 0.5, 0.5, 0.5, 0.5, 0.5, 0.5, -2.0, 0.5, -2.0, 0.5, -2.0, -2.0, 0.5, 0.5, -2.0, 0.5, -2.0, 0.5, -2.0, -2.0, 0.5, 0.5, -2.0, 0.5, 0.5, -2.0, 0.5, -2.0, -2.0, -2.0, 0.5, -2.0, -2.0, 0.5, -2.0, 0.5, 0.5, 0.5, -2.0, 0.5, 0.5, -2.0, -2.0, -2.0, -2.0, 0.5, -2.0, 0.5, -2.0, -2.0, 0.5, 0.5, -2.0, 0.5, -2.0, 0.5, -2.0, 0.5, -2.0, -2.0, 0.5, -2.0, 0.5, -2.0, 0.5, -2.0, 0.5, 0.5, 0.5, -2.0, -2.0, -2.0, 0.5, 0.5, -2.0, -2.0, -2.0, 0.5, -2.0, 0.5, 0.5, -2.0, 0.5, -2.0, -2.0, 0.5, -2.0, 0.5, -2.0, -2.0, 0.5, 0.5, 0.5, 0.5, -2.0, 0.5, -2.0, 0.5, -2.0, 0.5, -2.0, -2.0, 0.5, -2.0, 0.5, 0.5, 0.5, 0.5, -2.0, 0.5, -2.0, -2.0, -2.0, -2.0, 0.5, -2.0, -2.0, 0.5, 0.5, -2.0, 0.5, -2.0, 0.5, -2.0, -2.0, 0.5, -2.0, 0.5, 0.5, -2.0, 0.5, -2.0, 0.5, -2.0, -2.0, -2.0, 0.5, 0.5, 0.5, 0.5, -2.0, 0.5, -2.0, -2.0, -2.0, 0.5, 0.5, 0.5, 0.5, -2.0, -2.0, -2.0, 0.5, 0.5, -2.0, 0.5, 0.5, 0.5, -2.0, -2.0, -2.0, -2.0, -2.0, 0.5, 0.5, 0.5, 0.5, -2.0, -2.0, -2.0, -2.0, -2.0, 0.5, 0.5, -2.0, 0.5, -2.0, -2.0, 0.5, 0.5, -2.0, 0.5, -2.0, -2.0, 0.5, 0.5, -2.0, 0.5, 0.5, -2.0, -2.0, -2.0, -2.0, 0.5, 0.5, 0.5, 0.5, -2.0, 0.5, -2.0, 0.5, -2.0, 0.5, -2.0, 0.5, -2.0, -2.0, 0.5, 0.5, 0.5, -2.0, 0.5, 0.5, -2.0, 0.5, -2.0, -2.0, -2.0, 0.5, 0.5, -2.0, -2.0, 0.5, -2.0, -2.0, 0.5, 0.5, 0.5, 0.5, -2.0, 0.5, -2.0, -2.0, 0.5, 0.5, -2.0, -2.0, -2.0, 0.5, -2.0, 0.5, 0.5, 0.5, 0.5, -2.0, 0.5, -2.0, 0.5, -2.0, -2.0, 0.5, 0.5, -2.0, -2.0, -2.0, -2.0, -2.0, 0.5, 0.5, 0.5, 0.5, -2.0, 0.5, 0.5, -2.0, -2.0, -2.0, 0.5, 0.5, -2.0, -2.0, -2.0, -2.0, 0.5, 0.5, 0.5, -2.0, -2.0, -2.0, -2.0, 0.5, 0.5, 0.5, -2.0, 0.5, -2.0, -2.0, 0.5, -2.0, 0.5, -2.0, -2.0, 0.5, 0.5, 0.5, -2.0, -2.0, 0.5, -2.0, -2.0, 0.5, 0.5, -2.0, 0.5, 0.5, -2.0, -2.0, -2.0, -2.0, 0.5, 0.5, 0.5, -2.0, 0.5, -2.0, 0.5, 0.5, 0.5, 0.5, -2.0, -2.0, -2.0, -2.0, 0.5, -2.0, -2.0, 0.5, 0.5, 0.5, -2.0, 0.5, 0.5, 0.5, -2.0, -2.0, -2.0, 0.5, -2.0, 0.5, -2.0, 0.5, -2.0, -2.0, 0.5, 0.5, 0.5, -2.0, 0.5, -2.0, -2.0, 0.5, 0.5, -2.0, -2.0, -2.0, 0.5, 0.5, -2.0, 0.5, -2.0, -2.0, 0.5, 0.5, 0.5, -2.0, -2.0, -2.0, -2.0, 0.5, 0.5, 0.5, 0.5, -2.0, -2.0, -2.0, 0.5, 0.5, 0.5, 0.5, 0.5, -2.0, -2.0, -2.0, 0.5, -2.0, -2.0, -2.0, -2.0, 0.5, 0.5, -2.0, -2.0, -2.0, 0.5, 0.5, 0.5, 0.5, 0.5, 0.5, -2.0, -2.0, 0.5, 0.5, 0.5, 0.5, -2.0, 0.5, -2.0, 0.5, 0.5, -2.0, -2.0, -2.0, -2.0, -2.0, 0.5, 0.5, -2.0, 0.5, -2.0, -2.0, -2.0, 0.5, -2.0, 0.5, 0.5, 0.5, 0.5, -2.0, 0.5, -2.0, -2.0, -2.0, -2.0, -2.0, 0.5, 0.5, 0.5, 0.5, -2.0, 0.5, -2.0, 0.5, -2.0, -2.0, 0.5, -2.0, 0.5, 0.5, 0.5, 0.5, 0.5, -2.0, -2.0, 0.5, 0.5, -2.0, -2.0, -2.0, -2.0, -2.0, -2.0, -2.0, 0.5, 0.5, 0.5, 0.5, 0.5, -2.0, -2.0, -2.0, -2.0, -2.0, -2.0, -2.0, 0.5, 0.5, 0.5, -2.0, 0.5, 0.5, -2.0, 0.5, -2.0, -2.0, -2.0, 0.5, 0.5, -2.0, 0.5, 0.5, -2.0, 0.5, -2.0, 0.5, -2.0, 0.5, -2.0, 0.5, -2.0, -2.0, -2.0, 0.5, -2.0, -2.0, 0.5, 0.5, 0.5, -2.0, 0.5, -2.0, -2.0, 0.5, 0.5, 0.5, -2.0, 0.5, -2.0, -2.0, 0.5, -2.0, 0.5, -2.0, -2.0, -2.0, 0.5, 0.5, 0.5, -2.0, -2.0, -2.0, 0.5, 0.5, 0.5, 0.5, -2.0, 0.5, 0.5, -2.0, -2.0, 0.5, 0.5, -2.0, -2.0, -2.0, -2.0, -2.0, -2.0], "feature": [2, 10, 19, 8, 17, 13, 12, -2, 16, -2, 9, -2, -2, 22, 6, -2, 12, -2, 0, -2, -2, 20, 15, -2, 21, 16, -2, 7, -2, -2, -2, 1, -2, -2, 16, -2, 7, 22, 4, -2, 3, 5, -2, -2, -2, -2, 14, -2, 6, -2, -2, 22, 18, -2, 11, -2, 7, -2, 17, -2, -2, 15, -2, 5, -2, 11, -2, 17, 3, 16, -2, -2, -2, 18, 9, -2, -2, -2, 16, -2, 8, 9, -2, 15, -2, -2, 6, -2, 13, -2, -2, 11, 8, 17, 15, -2, 22, -2, 5, -2, 13, -2, -2, 12, -2, 21, 0, 5, 22, -2, 1, -2, -2, -2, -2, 5, -2, -2, 9, 7, -2, 4, -2, 1, -2, -2, 17, -2, 1, 16, -2, 22, -2, 12, -2, -2, -2, 8, 16, 6, 18, -2, 12, -2, -2, -2, 17, 22, 14, 12, -2, -2, -2, 18, 1, -2, 7, 9, 20, -2, -2, -2, -2, -2, 9, 7, 1, 5, -2, -2, -2, -2, -2, 9, 14, -2, 7, -2, -2, 16, 17, -2, 22, -2, -2, 14, 15, -2, 22, 7, -2, -2, -2, -2, 13, 20, 12, 18, -2, 11, -2, 22, -2, 16, -2, 8, -2, -2, 9, 4, 21, -2, 1, 16, -2, 11, -2, -2, -2, 15, 7, -2, -2, 16, -2, -2, 6, 11, 22, 17, -2, 16, -2, -2, 19, 8, -2, -2, -2, 15, -2, 10, 19, 22, 0, -2, 16, -2, 17, -2, -2, 18, 14, -2, -2, -2, -2, -2, 22, 19, 5, 15, -2, 4, 1, -2, -2, -2, 10, 11, -2, -2, -2, -2, 4, 0, 18, -2, -2, -2, -2, 9, 7, 5, -2, 8, -2, -2, 21, -2, 15, -2, -2, 16, 11, 17, -2, -2, 18, -2, -2, 15, 8, -2, 5, 21, -2, -2, -2, -2, 16, 15, 5, -2, 21, -2, 11, 9, 8, 7, -2, -2, -2, -2, 7, -2, -2, 5, 22, 0, -2, 8, 4, 21, -2, -2, -2, 12, -2, 1, -2, 11, -2, -2, 17, 3, 18, -2, 12, -2, -2, 1, 11, -2, -2, -2, 11, 8, -2, 7, -2, -2, 19, 21, 9, -2, -2, -2, -2, 6, 9, 10, 20, -2, -2, -2, 7, 14, 21, 8, 1, -2, -2, -2, 12, -2, -2, -2, -2, 1, 8, -2, -2, -2, 8, 20, 11, 22, 15, 9, -2, -2, 0, 18, 14, 9, -2, 12, -2, 17, 5, -2, -2, -2, -2, -2, 4, 9, -2, 7, -2, -2, -2, 0, -2, 15, 14, 17, 6, -2, 7, -2, -2, -2, -2, -2, 17, 19, 15, 4, -2, 22, -2, 12, -2, -2, 5, -2, 4, 21, 1, 0, 6, -2, -2, 7, 6, -2, -2, -2, -2, -2, -2, -2, 22, 6, 7, 9, 10, -2, -2, -2, -2, -2, -2, -2, 9, 22, 21, -2, 14, 10, -2, 5, -2, -2, -2, 21, 12, -2, 14, 11, -2, 10, -2, 4, -2, 1, -2, 7, -2, -2, -2, 12, -2, -2, 17, 4, 14, -2, 10, -2, -2, 11, 19, 21, -2, 3, -2, -2, 18, -2, 6, -2, -2, -2, 15, 20, 12, -2, -2, -2, 1, 0, 14, 11, -2, 6, 5, -2, -2, 20, 12, -2, -2, -2, -2, -2, -2], "classes": [0, 1], "value": [[3939.0, 4061.0], [2786.0, 192.0], [2248.0, 66.0], [2158.0, 42.0], [405.0, 34.0], [332.0, 4.0], [192.0, 1.0], [145.0, 0.0], [47.0, 1.0], [41.0, 0.0], [6.0, 1.0], [6.0, 0.0], [0.0, 1.0], [140.0, 3.0], [110.0, 1.0], [88.0, 0.0], [22.0, 1.0], [16.0, 0.0], [6.0, 1.0], [6.0, 0.0], [0.0, 1.0], [30.0, 2.0], [25.0, 1.0], [15.0, 0.0], [10.0, 1.0], [7.0, 1.0], [6.0, 0.0], [1.0, 1.0], [1.0, 0.0], [0.0, 1.0], [3.0, 0.0], [5.0, 1.0], [5.0, 0.0], [0.0, 1.0], [73.0, 30.0], [57.0, 0.0], [16.0, 30.0], [15.0, 12.0], [15.0, 1.0], [13.0, 0.0], [2.0, 1.0], [1.0, 1.0], [0.0, 1.0], [1.0, 0.0], [1.0, 0.0], [0.0, 11.0], [1.0, 18.0], [0.0, 17.0], [1.0, 1.0], [0.0, 1.0], [1.0, 0.0], [1753.0, 8.0], [1410.0, 1.0], [1165.0, 0.0], [245.0, 1.0], [176.0, 0.0], [69.0, 1.0], [68.0, 0.0], [1.0, 1.0], [1.0, 0.0], [0.0, 1.0], [343.0, 7.0], [256.0, 0.0], [87.0, 7.0], [64.0, 0.0], [23.0, 7.0], [13.0, 0.0], [10.0, 7.0], [9.0, 2.0], [5.0, 2.0], [5.0, 0.0], [0.0, 2.0], [4.0, 0.0], [1.0, 5.0], [1.0, 1.0], [1.0, 0.0], [0.0, 1.0], [0.0, 4.0], [90.0, 24.0], [63.0, 0.0], [27.0, 24.0], [7.0, 23.0], [6.0, 0.0], [1.0, 23.0], [1.0, 0.0], [0.0, 23.0], [20.0, 1.0], [14.0, 0.0], [6.0, 1.0], [6.0, 0.0], [0.0, 1.0], [538.0, 126.0], [394.0, 30.0], [77.0, 27.0], [58.0, 4.0], [42.0, 0.0], [16.0, 4.0], [7.0, 0.0], [9.0, 4.0], [8.0, 0.0], [1.0, 4.0], [1.0, 0.0], [0.0, 4.0], [19.0, 23.0], [11.0, 0.0], [8.0, 23.0], [4.0, 18.0], [4.0, 9.0], [4.0, 1.0], [3.0, 0.0], [1.0, 1.0], [1.0, 0.0], [0.0, 1.0], [0.0, 8.0], [0.0, 9.0], [4.0, 5.0], [4.0, 0.0], [0.0, 5.0], [317.0, 3.0], [206.0, 1.0], [199.0, 0.0], [7.0, 1.0], [6.0, 0.0], [1.0, 1.0], [0.0, 1.0], [1.0, 0.0], [111.0, 2.0], [77.0, 0.0], [34.0, 2.0], [25.0, 2.0], [20.0, 0.0], [5.0, 2.0], [1.0, 0.0], [4.0, 2.0], [4.0, 0.0], [0.0, 2.0], [9.0, 0.0], [144.0, 96.0], [27.0, 83.0], [17.0, 1.0], [12.0, 1.0], [9.0, 0.0], [3.0, 1.0], [3.0, 0.0], [0.0, 1.0], [5.0, 0.0], [10.0, 82.0], [9.0, 21.0], [4.0, 5.0], [4.0, 3.0], [4.0, 0.0], [0.0, 3.0], [0.0, 2.0], [5.0, 16.0], [5.0, 12.0], [0.0, 6.0], [5.0, 6.0], [5.0, 3.0], [1.0, 3.0], [1.0, 0.0], [0.0, 3.0], [4.0, 0.0], [0.0, 3.0], [0.0, 4.0], [1.0, 61.0], [1.0, 3.0], [1.0, 2.0], [1.0, 1.0], [1.0, 0.0], [0.0, 1.0], [0.0, 1.0], [0.0, 1.0], [0.0, 58.0], [117.0, 13.0], [96.0, 1.0], [91.0, 0.0], [5.0, 1.0], [5.0, 0.0], [0.0, 1.0], [21.0, 12.0], [17.0, 4.0], [15.0, 0.0], [2.0, 4.0], [2.0, 0.0], [0.0, 4.0], [4.0, 8.0], [4.0, 6.0], [2.0, 0.0], [2.0, 6.0], [2.0, 1.0], [2.0, 0.0], [0.0, 1.0], [0.0, 5.0], [0.0, 2.0], [1153.0, 3869.0], [704.0, 271.0], [634.0, 129.0], [452.0, 1.0], [358.0, 0.0], [94.0, 1.0], [59.0, 0.0], [35.0, 1.0], [26.0, 0.0], [9.0, 1.0], [2.0, 0.0], [7.0, 1.0], [0.0, 1.0], [7.0, 0.0], [182.0, 128.0], [123.0, 14.0], [92.0, 1.0], [72.0, 0.0], [20.0, 1.0], [6.0, 1.0], [5.0, 0.0], [1.0, 1.0], [1.0, 0.0], [0.0, 1.0], [14.0, 0.0], [31.0, 13.0], [26.0, 1.0], [26.0, 0.0], [0.0, 1.0], [5.0, 12.0], [5.0, 0.0], [0.0, 12.0], [59.0, 114.0], [49.0, 50.0], [31.0, 7.0], [25.0, 1.0], [21.0, 0.0], [4.0, 1.0], [4.0, 0.0], [0.0, 1.0], [6.0, 6.0], [6.0, 2.0], [0.0, 2.0], [6.0, 0.0], [0.0, 4.0], [18.0, 43.0], [7.0, 0.0], [11.0, 43.0], [11.0, 12.0], [11.0, 10.0], [9.0, 2.0], [5.0, 0.0], [4.0, 2.0], [3.0, 0.0], [1.0, 2.0], [1.0, 0.0], [0.0, 2.0], [2.0, 8.0], [2.0, 2.0], [2.0, 0.0], [0.0, 2.0], [0.0, 6.0], [0.0, 2.0], [0.0, 31.0], [10.0, 64.0], [8.0, 17.0], [8.0, 14.0], [7.0, 2.0], [6.0, 0.0], [1.0, 2.0], [1.0, 1.0], [0.0, 1.0], [1.0, 0.0], [0.0, 1.0], [1.0, 12.0], [1.0, 8.0], [1.0, 0.0], [0.0, 8.0], [0.0, 4.0], [0.0, 3.0], [2.0, 47.0], [2.0, 8.0], [2.0, 1.0], [2.0, 0.0], [0.0, 1.0], [0.0, 7.0], [0.0, 39.0], [70.0, 142.0], [44.0, 22.0], [42.0, 8.0], [34.0, 0.0], [8.0, 8.0], [0.0, 8.0], [8.0, 0.0], [2.0, 14.0], [0.0, 7.0], [2.0, 7.0], [2.0, 0.0], [0.0, 7.0], [26.0, 120.0], [21.0, 7.0], [17.0, 1.0], [17.0, 0.0], [0.0, 1.0], [4.0, 6.0], [4.0, 0.0], [0.0, 6.0], [5.0, 113.0], [5.0, 5.0], [0.0, 4.0], [5.0, 1.0], [2.0, 1.0], [2.0, 0.0], [0.0, 1.0], [3.0, 0.0], [0.0, 108.0], [449.0, 3598.0], [309.0, 181.0], [215.0, 5.0], [168.0, 0.0], [47.0, 5.0], [36.0, 0.0], [11.0, 5.0], [9.0, 1.0], [4.0, 1.0], [3.0, 1.0], [3.0, 0.0], [0.0, 1.0], [1.0, 0.0], [5.0, 0.0], [2.0, 4.0], [2.0, 0.0], [0.0, 4.0], [94.0, 176.0], [73.0, 60.0], [52.0, 10.0], [34.0, 0.0], [18.0, 10.0], [1.0, 7.0], [1.0, 1.0], [1.0, 0.0], [0.0, 1.0], [0.0, 6.0], [17.0, 3.0], [15.0, 0.0], [2.0, 3.0], [0.0, 2.0], [2.0, 1.0], [2.0, 0.0], [0.0, 1.0], [21.0, 50.0], [19.0, 5.0], [13.0, 1.0], [12.0, 0.0], [1.0, 1.0], [1.0, 0.0], [0.0, 1.0], [6.0, 4.0], [6.0, 1.0], [6.0, 0.0], [0.0, 1.0], [0.0, 3.0], [2.0, 45.0], [1.0, 8.0], [0.0, 5.0], [1.0, 3.0], [0.0, 3.0], [1.0, 0.0], [1.0, 37.0], [1.0, 26.0], [1.0, 14.0], [1.0, 0.0], [0.0, 14.0], [0.0, 12.0], [0.0, 11.0], [21.0, 116.0], [17.0, 57.0], [9.0, 6.0], [9.0, 1.0], [9.0, 0.0], [0.0, 1.0], [0.0, 5.0], [8.0, 51.0], [8.0, 23.0], [8.0, 16.0], [6.0, 6.0], [2.0, 6.0], [2.0, 0.0], [0.0, 6.0], [4.0, 0.0], [2.0, 10.0], [2.0, 0.0], [0.0, 10.0], [0.0, 7.0], [0.0, 28.0], [4.0, 59.0], [4.0, 20.0], [0.0, 20.0], [4.0, 0.0], [0.0, 39.0], [140.0, 3417.0], [35.0, 3128.0], [35.0, 1602.0], [26.0, 316.0], [21.0, 63.0], [12.0, 3.0], [12.0, 0.0], [0.0, 3.0], [9.0, 60.0], [6.0, 24.0], [6.0, 17.0], [6.0, 10.0], [2.0, 0.0], [4.0, 10.0], [2.0, 0.0], [2.0, 10.0], [2.0, 2.0], [2.0, 0.0], [0.0, 2.0], [0.0, 8.0], [0.0, 7.0], [0.0, 7.0], [3.0, 36.0], [3.0, 7.0], [1.0, 0.0], [2.0, 7.0], [2.0, 0.0], [0.0, 7.0], [0.0, 29.0], [5.0, 253.0], [0.0, 98.0], [5.0, 155.0], [5.0, 16.0], [5.0, 13.0], [5.0, 1.0], [3.0, 0.0], [2.0, 1.0], [2.0, 0.0], [0.0, 1.0], [0.0, 12.0], [0.0, 3.0], [0.0, 139.0], [9.0, 1286.0], [8.0, 267.0], [8.0, 205.0], [4.0, 8.0], [2.0, 0.0], [2.0, 8.0], [1.0, 0.0], [1.0, 8.0], [1.0, 0.0], [0.0, 8.0], [4.0, 197.0], [0.0, 93.0], [4.0, 104.0], [4.0, 19.0], [4.0, 13.0], [4.0, 6.0], [2.0, 4.0], [2.0, 0.0], [0.0, 4.0], [2.0, 2.0], [2.0, 1.0], [2.0, 0.0], [0.0, 1.0], [0.0, 1.0], [0.0, 7.0], [0.0, 6.0], [0.0, 85.0], [0.0, 62.0], [1.0, 1019.0], [1.0, 184.0], [1.0, 87.0], [1.0, 38.0], [1.0, 1.0], [1.0, 0.0], [0.0, 1.0], [0.0, 37.0], [0.0, 49.0], [0.0, 97.0], [0.0, 835.0], [0.0, 1526.0], [105.0, 289.0], [66.0, 59.0], [57.0, 7.0], [50.0, 0.0], [7.0, 7.0], [7.0, 2.0], [5.0, 0.0], [2.0, 2.0], [2.0, 0.0], [0.0, 2.0], [0.0, 5.0], [9.0, 52.0], [8.0, 38.0], [6.0, 0.0], [2.0, 38.0], [2.0, 31.0], [1.0, 0.0], [1.0, 31.0], [0.0, 22.0], [1.0, 9.0], [0.0, 3.0], [1.0, 6.0], [0.0, 4.0], [1.0, 2.0], [1.0, 0.0], [0.0, 2.0], [0.0, 7.0], [1.0, 14.0], [1.0, 0.0], [0.0, 14.0], [39.0, 230.0], [31.0, 43.0], [20.0, 2.0], [19.0, 0.0], [1.0, 2.0], [1.0, 0.0], [0.0, 2.0], [11.0, 41.0], [11.0, 6.0], [10.0, 4.0], [7.0, 0.0], [3.0, 4.0], [0.0, 4.0], [3.0, 0.0], [1.0, 2.0], [0.0, 1.0], [1.0, 1.0], [1.0, 0.0], [0.0, 1.0], [0.0, 35.0], [8.0, 187.0], [4.0, 19.0], [4.0, 7.0], [4.0, 0.0], [0.0, 7.0], [0.0, 12.0], [4.0, 168.0], [4.0, 49.0], [4.0, 19.0], [4.0, 6.0], [0.0, 1.0], [4.0, 5.0], [2.0, 2.0], [2.0, 0.0], [0.0, 2.0], [2.0, 3.0], [2.0, 2.0], [2.0, 0.0], [0.0, 2.0], [0.0, 1.0], [0.0, 13.0], [0.0, 30.0], [0.0, 119.0]]}, {"children_left": [1, 2, 3, 4, -1, 6, -1, 8, -1, 10, -1, 12, 13, -1, -1, 16, -1, 18, -1, -1, 21, 22, 23, -1, 25, -1, 27, 28, 29, -1, 31, -1, -1, -1, -1, 36, 37, -1, 39, -1, 41, -1, -1, 44, 45, -1, 47, -1, -1, -1, 51, -1, 53, 54, 55, 56, -1, 58, -1, 60, -1, -1, 63, -1, 65, 66, -1, 68, 69, -1, -1, 72, 73, -1, -1, -1, -1, 78, -1, -1, 81, 82, -1, 84, 85, -1, 87, -1, -1, 90, -1, -1, 93, 94, 95, 96, 97, -1, -1, -1, -1, -1, -1, 104, 105, -1, 107, -1, -1, 110, 111, 112, -1, 114, 115, -1, -1, -1, 119, 120, 121, 122, 123, -1, -1, -1, -1, -1, -1, 130, 131, -1, 133, -1, -1, 136, 137, -1, -1, -1, 141, 142, 143, -1, 145, 146, 147, 148, -1, 150, 151, 152, -1, -1, 155, -1, -1, -1, -1, 160, -1, 162, -1, -1, 165, 166, 167, -1, -1, -1, 171, -1, 173, -1, 175, -1, 177, -1, -1, 180, 181, 182, 183, -1, 185, -1, 187, 188, 189, -1, -1, -1, -1, 194, 195, 196, -1, 198, 199, -1, -1, -1, 203, -1, -1, 206, 207, 208, -1, -1, 211, 212, 213, -1, -1, -1, -1, 218, -1, -1, 221, 222, 223, 224, -1, -1, 227, -1, 229, -1, -1, -1, -1, 234, 235, 236, -1, 238, -1, 240, 241, -1, 243, -1, -1, -1, 247, -1, 249, 250, -1, 252, -1, -1, 255, -1, 257, 258, 259, 260, -1, -1, -1, -1, -1, 266, 267, 268, 269, -1, 271, 272, -1, -1, -1, 276, 277, -1, -1, -1, 281, 282, -1, -1, -1, -1, 287, 288, 289, -1, 291, -1, 293, 294, 295, -1, -1, -1, -1, 300, 301, 302, 303, 304, -1, 306, -1, -1, -1, -1, 311, -1, 313, -1, 315, -1, -1, 318, 319, 320, -1, 322, -1, -1, 325, -1, -1, 328, -1, 330, 331, -1, 333, 334, -1, -1, -1, -1, 339, 340, -1, 342, 343, 344, -1, -1, -1, 348, -1, -1, 351, 352, 353, 354, -1, -1, 357, 358, 359, -1, 361, -1, -1, -1, -1, 366, -1, 368, 369, 370, -1, 372, -1, -1, -1, -1, 377, 378, 379, -1, -1, -1, 383, -1, 385, 386, 387, -1, -1, -1, 391, 392, 393, -1, -1, -1, -1], "children_right": [140, 103, 20, 5, -1, 7, -1, 9, -1, 11, -1, 15, 14, -1, -1, 17, -1, 19, -1, -1, 50, 35, 24, -1, 26, -1, 34, 33, 30, -1, 32, -1, -1, -1, -1, 43, 38, -1, 40, -1, 42, -1, -1, 49, 46, -1, 48, -1, -1, -1, 52, -1, 80, 77, 62, 57, -1, 59, -1, 61, -1, -1, 64, -1, 76, 67, -1, 71, 70, -1, -1, 75, 74, -1, -1, -1, -1, 79, -1, -1, 92, 83, -1, 89, 86, -1, 88, -1, -1, 91, -1, -1, 102, 101, 100, 99, 98, -1, -1, -1, -1, -1, -1, 109, 106, -1, 108, -1, -1, 129, 118, 113, -1, 117, 116, -1, -1, -1, 128, 127, 126, 125, 124, -1, -1, -1, -1, -1, -1, 135, 132, -1, 134, -1, -1, 139, 138, -1, -1, -1, 286, 179, 144, -1, 164, 159, 158, 149, -1, 157, 154, 153, -1, -1, 156, -1, -1, -1, -1, 161, -1, 163, -1, -1, 170, 169, 168, -1, -1, -1, 172, -1, 174, -1, 176, -1, 178, -1, -1, 233, 220, 193, 184, -1, 186, -1, 192, 191, 190, -1, -1, -1, -1, 205, 202, 197, -1, 201, 200, -1, -1, -1, 204, -1, -1, 217, 210, 209, -1, -1, 216, 215, 214, -1, -1, -1, -1, 219, -1, -1, 232, 231, 226, 225, -1, -1, 228, -1, 230, -1, -1, -1, -1, 265, 246, 237, -1, 239, -1, 245, 242, -1, 244, -1, -1, -1, 248, -1, 254, 251, -1, 253, -1, -1, 256, -1, 264, 263, 262, 261, -1, -1, -1, -1, -1, 285, 280, 275, 270, -1, 274, 273, -1, -1, -1, 279, 278, -1, -1, -1, 284, 283, -1, -1, -1, -1, 338, 299, 290, -1, 292, -1, 298, 297, 296, -1, -1, -1, -1, 317, 310, 309, 308, 305, -1, 307, -1, -1, -1, -1, 312, -1, 314, -1, 316, -1, -1, 327, 324, 321, -1, 323, -1, -1, 326, -1, -1, 329, -1, 337, 332, -1, 336, 335, -1, -1, -1, -1, 350, 341, -1, 347, 346, 345, -1, -1, -1, 349, -1, -1, 376, 365, 356, 355, -1, -1, 364, 363, 360, -1, 362, -1, -1, -1, -1, 367, -1, 375, 374, 371, -1, 373, -1, -1, -1, -1, 382, 381, 380, -1, -1, -1, 384, -1, 390, 389, 388, -1, -1, -1, 396, 395, 394, -1, -1, -1, -1], "threshold": [0.5, 0.5, 0.5, 0.5, -2.0, 0.5, -2.0, 0.5, -2.0, 0.5, -2.0, 0.5, 0.5, -2.0, -2.0, 0.5, -2.0, 0.5, -2.0, -2.0, 0.5, 0.5, 0.5, -2.0, 0.5, -2.0, 0.5, 0.5, 0.5, -2.0, 0.5, -2.0, -2.0, -2.0, -2.0, 0.5, 0.5, -2.0, 0.5, -2.0, 0.5, -2.0, -2.0, 0.5, 0.5, -2.0, 0.5, -2.0, -2.0, -2.0, 0.5, -2.0, 0.5, 0.5, 0.5, 0.5, -2.0, 0.5, -2.0, 0.5, -2.0, -2.0, 0.5, -2.0, 0.5, 0.5, -2.0, 0.5, 0.5, -2.0, -2.0, 0.5, 0.5, -2.0, -2.0, -2.0, -2.0, 0.5, -2.0, -2.0, 0.5, 0.5, -2.0, 0.5, 0.5, -2.0, 0.5, -2.0, -2.0, 0.5, -2.0, -2.0, 0.5, 0.5, 0.5, 0.5, 0.5, -2.0, -2.0, -2.0, -2.0, -2.0, -2.0, 0.5, 0.5, -2.0, 0.5, -2.0, -2.0, 0.5, 0.5, 0.5, -2.0, 0.5, 0.5, -2.0, -2.0, -2.0, 0.5, 0.5, 0.5, 0.5, 0.5, -2.0, -2.0, -2.0, -2.0, -2.0, -2.0, 0.5, 0.5, -2.0, 0.5, -2.0, -2.0, 0.5, 0.5, -2.0, -2.0, -2.0, 0.5, 0.5, 0.5, -2.0, 0.5, 0.5, 0.5, 0.5, -2.0, 0.5, 0.5, 0.5, -2.0, -2.0, 0.5, -2.0, -2.0, -2.0, -2.0, 0.5, -2.0, 0.5, -2.0, -2.0, 0.5, 0.5, 0.5, -2.0, -2.0, -2.0, 0.5, -2.0, 0.5, -2.0, 0.5, -2.0, 0.5, -2.0, -2.0, 0.5, 0.5, 0.5, 0.5, -2.0, 0.5, -2.0, 0.5, 0.5, 0.5, -2.0, -2.0, -2.0, -2.0, 0.5, 0.5, 0.5, -2.0, 0.5, 0.5, -2.0, -2.0, -2.0, 0.5, -2.0, -2.0, 0.5, 0.5, 0.5, -2.0, -2.0, 0.5, 0.5, 0.5, -2.0, -2.0, -2.0, -2.0, 0.5, -2.0, -2.0, 0.5, 0.5, 0.5, 0.5, -2.0, -2.0, 0.5, -2.0, 0.5, -2.0, -2.0, -2.0, -2.0, 0.5, 0.5, 0.5, -2.0, 0.5, -2.0, 0.5, 0.5, -2.0, 0.5, -2.0, -2.0, -2.0, 0.5, -2.0, 0.5, 0.5, -2.0, 0.5, -2.0, -2.0, 0.5, -2.0, 0.5, 0.5, 0.5, 0.5, -2.0, -2.0, -2.0, -2.0, -2.0, 0.5, 0.5, 0.5, 0.5, -2.0, 0.5, 0.5, -2.0, -2.0, -2.0, 0.5, 0.5, -2.0, -2.0, -2.0, 0.5, 0.5, -2.0, -2.0, -2.0, -2.0, 0.5, 0.5, 0.5, -2.0, 0.5, -2.0, 0.5, 0.5, 0.5, -2.0, -2.0, -2.0, -2.0, 0.5, 0.5, 0.5, 0.5, 0.5, -2.0, 0.5, -2.0, -2.0, -2.0, -2.0, 0.5, -2.0, 0.5, -2.0, 0.5, -2.0, -2.0, 0.5, 0.5, 0.5, -2.0, 0.5, -2.0, -2.0, 0.5, -2.0, -2.0, 0.5, -2.0, 0.5, 0.5, -2.0, 0.5, 0.5, -2.0, -2.0, -2.0, -2.0, 0.5, 0.5, -2.0, 0.5, 0.5, 0.5, -2.0, -2.0, -2.0, 0.5, -2.0, -2.0, 0.5, 0.5, 0.5, 0.5, -2.0, -2.0, 0.5, 0.5, 0.5, -2.0, 0.5, -2.0, -2.0, -2.0, -2.0, 0.5, -2.0, 0.5, 0.5, 0.5, -2.0, 0.5, -2.0, -2.0, -2.0, -2.0, 0.5, 0.5, 0.5, -2.0, -2.0, -2.0, 0.5, -2.0, 0.5, 0.5, 0.5, -2.0, -2.0, -2.0, 0.5, 0.5, 0.5, -2.0, -2.0, -2.0, -2.0], "feature": [9, 7, 16, 15, -2, 13, -2, 4, -2, 1, -2, 11, 20, -2, -2, 5, -2, 0, -2, -2, 2, 0, 5, -2, 15, -2, 3, 20, 12, -2, 17, -2, -2, -2, -2, 5, 17, -2, 14, -2, 11, -2, -2, 8, 4, -2, 17, -2, -2, -2, 12, -2, 22, 20, 17, 21, -2, 15, -2, 13, -2, -2, 13, -2, 10, 5, -2, 18, 8, -2, -2, 21, 6, -2, -2, -2, -2, 15, -2, -2, 17, 11, -2, 8, 6, -2, 5, -2, -2, 3, -2, -2, 4, 5, 18, 10, 11, -2, -2, -2, -2, -2, -2, 12, 14, -2, 2, -2, -2, 8, 13, 16, -2, 10, 15, -2, -2, -2, 17, 10, 16, 14, 20, -2, -2, -2, -2, -2, -2, 4, 17, -2, 2, -2, -2, 16, 19, -2, -2, -2, 22, 2, 12, -2, 4, 7, 8, 17, -2, 20, 5, 3, -2, -2, 6, -2, -2, -2, -2, 10, -2, 21, -2, -2, 1, 8, 5, -2, -2, -2, 8, -2, 18, -2, 17, -2, 7, -2, -2, 8, 7, 13, 15, -2, 16, -2, 6, 20, 17, -2, -2, -2, -2, 17, 18, 12, -2, 19, 15, -2, -2, -2, 16, -2, -2, 1, 15, 0, -2, -2, 3, 10, 16, -2, -2, -2, -2, 12, -2, -2, 16, 14, 1, 11, -2, -2, 21, -2, 12, -2, -2, -2, -2, 7, 17, 10, -2, 16, -2, 21, 12, -2, 4, -2, -2, -2, 12, -2, 13, 20, -2, 15, -2, -2, 15, -2, 20, 19, 6, 18, -2, -2, -2, -2, -2, 17, 18, 20, 12, -2, 6, 13, -2, -2, -2, 14, 3, -2, -2, -2, 10, 5, -2, -2, -2, -2, 17, 12, 15, -2, 1, -2, 6, 8, 0, -2, -2, -2, -2, 4, 8, 16, 19, 2, -2, 1, -2, -2, -2, -2, 2, -2, 16, -2, 11, -2, -2, 15, 13, 2, -2, 21, -2, -2, 2, -2, -2, 8, -2, 11, 16, -2, 20, 2, -2, -2, -2, -2, 12, 16, -2, 10, 7, 18, -2, -2, -2, 4, -2, -2, 13, 2, 16, 10, -2, -2, 10, 21, 11, -2, 15, -2, -2, -2, -2, 16, -2, 4, 7, 8, -2, 1, -2, -2, -2, -2, 16, 5, 15, -2, -2, -2, 8, -2, 15, 11, 7, -2, -2, -2, 2, 11, 14, -2, -2, -2, -2], "classes": [0, 1], "value": [[3963.0, 4037.0], [2765.0, 475.0], [2611.0, 181.0], [1845.0, 3.0], [1289.0, 0.0], [556.0, 3.0], [355.0, 0.0], [201.0, 3.0], [137.0, 0.0], [64.0, 3.0], [42.0, 0.0], [22.0, 3.0], [16.0, 1.0], [16.0, 0.0], [0.0, 1.0], [6.0, 2.0], [5.0, 0.0], [1.0, 2.0], [1.0, 0.0], [0.0, 2.0], [766.0, 178.0], [537.0, 8.0], [364.0, 3.0], [314.0, 0.0], [50.0, 3.0], [37.0, 0.0], [13.0, 3.0], [11.0, 3.0], [11.0, 1.0], [8.0, 0.0], [3.0, 1.0], [3.0, 0.0], [0.0, 1.0], [0.0, 2.0], [2.0, 0.0], [173.0, 5.0], [91.0, 1.0], [64.0, 0.0], [27.0, 1.0], [26.0, 0.0], [1.0, 1.0], [1.0, 0.0], [0.0, 1.0], [82.0, 4.0], [20.0, 4.0], [17.0, 0.0], [3.0, 4.0], [3.0, 0.0], [0.0, 4.0], [62.0, 0.0], [229.0, 170.0], [148.0, 0.0], [81.0, 170.0], [65.0, 34.0], [64.0, 15.0], [46.0, 2.0], [36.0, 0.0], [10.0, 2.0], [8.0, 0.0], [2.0, 2.0], [2.0, 0.0], [0.0, 2.0], [18.0, 13.0], [7.0, 0.0], [11.0, 13.0], [11.0, 3.0], [9.0, 0.0], [2.0, 3.0], [1.0, 1.0], [0.0, 1.0], [1.0, 0.0], [1.0, 2.0], [1.0, 1.0], [1.0, 0.0], [0.0, 1.0], [0.0, 1.0], [0.0, 10.0], [1.0, 19.0], [1.0, 0.0], [0.0, 19.0], [16.0, 136.0], [15.0, 13.0], [11.0, 0.0], [4.0, 13.0], [1.0, 12.0], [0.0, 9.0], [1.0, 3.0], [1.0, 0.0], [0.0, 3.0], [3.0, 1.0], [3.0, 0.0], [0.0, 1.0], [1.0, 123.0], [1.0, 29.0], [1.0, 13.0], [1.0, 8.0], [1.0, 1.0], [1.0, 0.0], [0.0, 1.0], [0.0, 7.0], [0.0, 5.0], [0.0, 16.0], [0.0, 94.0], [154.0, 294.0], [101.0, 1.0], [96.0, 0.0], [5.0, 1.0], [5.0, 0.0], [0.0, 1.0], [53.0, 293.0], [8.0, 265.0], [6.0, 22.0], [4.0, 0.0], [2.0, 22.0], [2.0, 4.0], [2.0, 0.0], [0.0, 4.0], [0.0, 18.0], [2.0, 243.0], [2.0, 49.0], [2.0, 20.0], [2.0, 2.0], [2.0, 1.0], [2.0, 0.0], [0.0, 1.0], [0.0, 1.0], [0.0, 18.0], [0.0, 29.0], [0.0, 194.0], [45.0, 28.0], [33.0, 6.0], [26.0, 0.0], [7.0, 6.0], [7.0, 0.0], [0.0, 6.0], [12.0, 22.0], [12.0, 1.0], [12.0, 0.0], [0.0, 1.0], [0.0, 21.0], [1198.0, 3562.0], [930.0, 651.0], [653.0, 31.0], [454.0, 0.0], [199.0, 31.0], [132.0, 7.0], [121.0, 3.0], [33.0, 3.0], [23.0, 0.0], [10.0, 3.0], [10.0, 2.0], [6.0, 1.0], [6.0, 0.0], [0.0, 1.0], [4.0, 1.0], [4.0, 0.0], [0.0, 1.0], [0.0, 1.0], [88.0, 0.0], [11.0, 4.0], [7.0, 0.0], [4.0, 4.0], [4.0, 0.0], [0.0, 4.0], [67.0, 24.0], [47.0, 6.0], [8.0, 6.0], [8.0, 0.0], [0.0, 6.0], [39.0, 0.0], [20.0, 18.0], [0.0, 15.0], [20.0, 3.0], [19.0, 0.0], [1.0, 3.0], [0.0, 2.0], [1.0, 1.0], [1.0, 0.0], [0.0, 1.0], [277.0, 620.0], [55.0, 549.0], [49.0, 191.0], [30.0, 11.0], [25.0, 0.0], [5.0, 11.0], [3.0, 0.0], [2.0, 11.0], [2.0, 6.0], [2.0, 1.0], [2.0, 0.0], [0.0, 1.0], [0.0, 5.0], [0.0, 5.0], [19.0, 180.0], [11.0, 34.0], [9.0, 13.0], [8.0, 0.0], [1.0, 13.0], [1.0, 7.0], [1.0, 0.0], [0.0, 7.0], [0.0, 6.0], [2.0, 21.0], [2.0, 0.0], [0.0, 21.0], [8.0, 146.0], [6.0, 63.0], [2.0, 2.0], [2.0, 0.0], [0.0, 2.0], [4.0, 61.0], [4.0, 44.0], [4.0, 23.0], [4.0, 0.0], [0.0, 23.0], [0.0, 21.0], [0.0, 17.0], [2.0, 83.0], [2.0, 0.0], [0.0, 83.0], [6.0, 358.0], [6.0, 23.0], [6.0, 13.0], [4.0, 5.0], [4.0, 0.0], [0.0, 5.0], [2.0, 8.0], [0.0, 7.0], [2.0, 1.0], [2.0, 0.0], [0.0, 1.0], [0.0, 10.0], [0.0, 335.0], [222.0, 71.0], [211.0, 22.0], [179.0, 3.0], [150.0, 0.0], [29.0, 3.0], [23.0, 0.0], [6.0, 3.0], [6.0, 1.0], [4.0, 0.0], [2.0, 1.0], [0.0, 1.0], [2.0, 0.0], [0.0, 2.0], [32.0, 19.0], [24.0, 0.0], [8.0, 19.0], [5.0, 2.0], [3.0, 0.0], [2.0, 2.0], [2.0, 0.0], [0.0, 2.0], [3.0, 17.0], [1.0, 0.0], [2.0, 17.0], [2.0, 9.0], [2.0, 8.0], [2.0, 7.0], [2.0, 0.0], [0.0, 7.0], [0.0, 1.0], [0.0, 1.0], [0.0, 8.0], [11.0, 49.0], [11.0, 11.0], [10.0, 6.0], [7.0, 2.0], [6.0, 0.0], [1.0, 2.0], [1.0, 1.0], [1.0, 0.0], [0.0, 1.0], [0.0, 1.0], [3.0, 4.0], [3.0, 1.0], [3.0, 0.0], [0.0, 1.0], [0.0, 3.0], [1.0, 5.0], [1.0, 1.0], [0.0, 1.0], [1.0, 0.0], [0.0, 4.0], [0.0, 38.0], [268.0, 2911.0], [217.0, 567.0], [163.0, 1.0], [114.0, 0.0], [49.0, 1.0], [23.0, 0.0], [26.0, 1.0], [19.0, 1.0], [2.0, 1.0], [2.0, 0.0], [0.0, 1.0], [17.0, 0.0], [7.0, 0.0], [54.0, 566.0], [38.0, 115.0], [5.0, 112.0], [5.0, 5.0], [5.0, 2.0], [4.0, 0.0], [1.0, 2.0], [1.0, 0.0], [0.0, 2.0], [0.0, 3.0], [0.0, 107.0], [33.0, 3.0], [24.0, 0.0], [9.0, 3.0], [8.0, 0.0], [1.0, 3.0], [1.0, 0.0], [0.0, 3.0], [16.0, 451.0], [13.0, 21.0], [9.0, 1.0], [8.0, 0.0], [1.0, 1.0], [0.0, 1.0], [1.0, 0.0], [4.0, 20.0], [4.0, 0.0], [0.0, 20.0], [3.0, 430.0], [0.0, 407.0], [3.0, 23.0], [3.0, 7.0], [2.0, 0.0], [1.0, 7.0], [1.0, 2.0], [1.0, 0.0], [0.0, 2.0], [0.0, 5.0], [0.0, 16.0], [51.0, 2344.0], [33.0, 17.0], [21.0, 0.0], [12.0, 17.0], [3.0, 15.0], [3.0, 2.0], [3.0, 0.0], [0.0, 2.0], [0.0, 13.0], [9.0, 2.0], [9.0, 0.0], [0.0, 2.0], [18.0, 2327.0], [8.0, 156.0], [5.0, 12.0], [3.0, 1.0], [3.0, 0.0], [0.0, 1.0], [2.0, 11.0], [2.0, 5.0], [2.0, 3.0], [0.0, 1.0], [2.0, 2.0], [2.0, 0.0], [0.0, 2.0], [0.0, 2.0], [0.0, 6.0], [3.0, 144.0], [0.0, 10.0], [3.0, 134.0], [3.0, 25.0], [3.0, 9.0], [0.0, 8.0], [3.0, 1.0], [3.0, 0.0], [0.0, 1.0], [0.0, 16.0], [0.0, 109.0], [10.0, 2171.0], [7.0, 90.0], [7.0, 35.0], [7.0, 0.0], [0.0, 35.0], [0.0, 55.0], [3.0, 2081.0], [0.0, 1911.0], [3.0, 170.0], [2.0, 19.0], [2.0, 2.0], [2.0, 0.0], [0.0, 2.0], [0.0, 17.0], [1.0, 151.0], [1.0, 8.0], [1.0, 2.0], [0.0, 2.0], [1.0, 0.0], [0.0, 6.0], [0.0, 143.0]]}, {"children_left": [1, 2, -1, 4, -1, 6, 7, -1, 9, -1, 11, -1, -1, 14, -1, 16, -1, 18, 19, -1, -1, 22, -1, -1, 25, 26, 27, -1, 29, -1, 31, 32, 33, -1, -1, -1, 37, 38, 39, -1, -1, -1, -1, 44, 45, 46, 47, -1, 49, 50, -1, 52, -1, -1, -1, 56, 57, -1, 59, -1, -1, 62, 63, -1, -1, -1, 67, -1, -1, 70, 71, 72, 73, 74, -1, 76, -1, -1, -1, 80, 81, -1, -1, -1, 85, 86, 87, 88, -1, 90, 91, -1, -1, -1, -1, -1, -1, 98, -1, 100, 101, 102, -1, 104, -1, -1, -1, 108, 109, -1, -1, -1, 113, 114, 115, 116, 117, -1, 119, 120, 121, -1, -1, 124, 125, -1, -1, -1, 129, -1, 131, 132, -1, 134, -1, -1, 137, -1, -1, 140, 141, -1, -1, -1, 145, 146, 147, -1, -1, 150, 151, -1, -1, 154, -1, -1, 157, 158, 159, 160, -1, -1, -1, -1, -1, 166, 167, 168, 169, 170, -1, 172, 173, 174, -1, -1, -1, -1, -1, -1, 181, 182, -1, 184, -1, -1, 187, -1, -1, 190, 191, 192, 193, 194, -1, 196, 197, -1, -1, -1, -1, 202, 203, -1, -1, 206, 207, 208, 209, -1, -1, -1, -1, -1, 215, 216, -1, -1, 219, 220, 221, -1, -1, -1, -1, 226, 227, 228, 229, 230, 231, -1, 233, 234, 235, 236, -1, -1, -1, -1, -1, -1, -1, -1, 245, 246, 247, 248, 249, 250, 251, -1, -1, -1, -1, -1, -1, -1, -1, 260, 261, 262, 263, 264, -1, 266, -1, 268, -1, -1, 271, -1, -1, 274, -1, -1, 277, -1, -1, 280, 281, 282, -1, 284, -1, -1, 287, 288, 289, 290, -1, -1, -1, -1, -1, -1, 297, 298, 299, 300, 301, -1, -1, 304, 305, 306, -1, 308, -1, -1, -1, -1, 313, 314, 315, -1, 317, -1, -1, -1, -1, 322, 323, 324, -1, 326, -1, -1, 329, 330, 331, -1, -1, -1, -1, 336, 337, 338, -1, -1, -1, -1, 343, 344, -1, 346, -1, 348, -1, 350, -1, -1, -1], "children_right": [24, 3, -1, 5, -1, 13, 8, -1, 10, -1, 12, -1, -1, 15, -1, 17, -1, 21, 20, -1, -1, 23, -1, -1, 112, 43, 28, -1, 30, -1, 36, 35, 34, -1, -1, -1, 42, 41, 40, -1, -1, -1, -1, 69, 66, 55, 48, -1, 54, 51, -1, 53, -1, -1, -1, 61, 58, -1, 60, -1, -1, 65, 64, -1, -1, -1, 68, -1, -1, 97, 84, 79, 78, 75, -1, 77, -1, -1, -1, 83, 82, -1, -1, -1, 96, 95, 94, 89, -1, 93, 92, -1, -1, -1, -1, -1, -1, 99, -1, 107, 106, 103, -1, 105, -1, -1, -1, 111, 110, -1, -1, -1, 296, 165, 144, 139, 118, -1, 128, 123, 122, -1, -1, 127, 126, -1, -1, -1, 130, -1, 136, 133, -1, 135, -1, -1, 138, -1, -1, 143, 142, -1, -1, -1, 156, 149, 148, -1, -1, 153, 152, -1, -1, 155, -1, -1, 164, 163, 162, 161, -1, -1, -1, -1, -1, 189, 180, 179, 178, 171, -1, 177, 176, 175, -1, -1, -1, -1, -1, -1, 186, 183, -1, 185, -1, -1, 188, -1, -1, 225, 214, 201, 200, 195, -1, 199, 198, -1, -1, -1, -1, 205, 204, -1, -1, 213, 212, 211, 210, -1, -1, -1, -1, -1, 218, 217, -1, -1, 224, 223, 222, -1, -1, -1, -1, 259, 244, 243, 242, 241, 232, -1, 240, 239, 238, 237, -1, -1, -1, -1, -1, -1, -1, -1, 258, 257, 256, 255, 254, 253, 252, -1, -1, -1, -1, -1, -1, -1, -1, 279, 276, 273, 270, 265, -1, 267, -1, 269, -1, -1, 272, -1, -1, 275, -1, -1, 278, -1, -1, 295, 286, 283, -1, 285, -1, -1, 294, 293, 292, 291, -1, -1, -1, -1, -1, -1, 342, 321, 312, 303, 302, -1, -1, 311, 310, 307, -1, 309, -1, -1, -1, -1, 320, 319, 316, -1, 318, -1, -1, -1, -1, 335, 328, 325, -1, 327, -1, -1, 334, 333, 332, -1, -1, -1, -1, 341, 340, 339, -1, -1, -1, -1, 352, 345, -1, 347, -1, 349, -1, 351, -1, -1, -1], "threshold": [0.5, 0.5, -2.0, 0.5, -2.0, 0.5, 0.5, -2.0, 0.5, -2.0, 0.5, -2.0, -2.0, 0.5, -2.0, 0.5, -2.0, 0.5, 0.5, -2.0, -2.0, 0.5, -2.0, -2.0, 0.5, 0.5, 0.5, -2.0, 0.5, -2.0, 0.5, 0.5, 0.5, -2.0, -2.0, -2.0, 0.5, 0.5, 0.5, -2.0, -2.0, -2.0, -2.0, 0.5, 0.5, 0.5, 0.5, -2.0, 0.5, 0.5, -2.0, 0.5, -2.0, -2.0, -2.0, 0.5, 0.5, -2.0, 0.5, -2.0, -2.0, 0.5, 0.5, -2.0, -2.0, -2.0, 0.5, -2.0, -2.0, 0.5, 0.5, 0.5, 0.5, 0.5, -2.0, 0.5, -2.0, -2.0, -2.0, 0.5, 0.5, -2.0, -2.0, -2.0, 0.5, 0.5, 0.5, 0.5, -2.0, 0.5, 0.5, -2.0, -2.0, -2.0, -2.0, -2.0, -2.0, 0.5, -2.0, 0.5, 0.5, 0.5, -2.0, 0.5, -2.0, -2.0, -2.0, 0.5, 0.5, -2.0, -2.0, -2.0, 0.5, 0.5, 0.5, 0.5, 0.5, -2.0, 0.5, 0.5, 0.5, -2.0, -2.0, 0.5, 0.5, -2.0, -2.0, -2.0, 0.5, -2.0, 0.5, 0.5, -2.0, 0.5, -2.0, -2.0, 0.5, -2.0, -2.0, 0.5, 0.5, -2.0, -2.0, -2.0, 0.5, 0.5, 0.5, -2.0, -2.0, 0.5, 0.5, -2.0, -2.0, 0.5, -2.0, -2.0, 0.5, 0.5, 0.5, 0.5, -2.0, -2.0, -2.0, -2.0, -2.0, 0.5, 0.5, 0.5, 0.5, 0.5, -2.0, 0.5, 0.5, 0.5, -2.0, -2.0, -2.0, -2.0, -2.0, -2.0, 0.5, 0.5, -2.0, 0.5, -2.0, -2.0, 0.5, -2.0, -2.0, 0.5, 0.5, 0.5, 0.5, 0.5, -2.0, 0.5, 0.5, -2.0, -2.0, -2.0, -2.0, 0.5, 0.5, -2.0, -2.0, 0.5, 0.5, 0.5, 0.5, -2.0, -2.0, -2.0, -2.0, -2.0, 0.5, 0.5, -2.0, -2.0, 0.5, 0.5, 0.5, -2.0, -2.0, -2.0, -2.0, 0.5, 0.5, 0.5, 0.5, 0.5, 0.5, -2.0, 0.5, 0.5, 0.5, 0.5, -2.0, -2.0, -2.0, -2.0, -2.0, -2.0, -2.0, -2.0, 0.5, 0.5, 0.5, 0.5, 0.5, 0.5, 0.5, -2.0, -2.0, -2.0, -2.0, -2.0, -2.0, -2.0, -2.0, 0.5, 0.5, 0.5, 0.5, 0.5, -2.0, 0.5, -2.0, 0.5, -2.0, -2.0, 0.5, -2.0, -2.0, 0.5, -2.0, -2.0, 0.5, -2.0, -2.0, 0.5, 0.5, 0.5, -2.0, 0.5, -2.0, -2.0, 0.5, 0.5, 0.5, 0.5, -2.0, -2.0, -2.0, -2.0, -2.0, -2.0, 0.5, 0.5, 0.5, 0.5, 0.5, -2.0, -2.0, 0.5, 0.5, 0.5, -2.0, 0.5, -2.0, -2.0, -2.0, -2.0, 0.5, 0.5, 0.5, -2.0, 0.5, -2.0, -2.0, -2.0, -2.0, 0.5, 0.5, 0.5, -2.0, 0.5, -2.0, -2.0, 0.5, 0.5, 0.5, -2.0, -2.0, -2.0, -2.0, 0.5, 0.5, 0.5, -2.0, -2.0, -2.0, -2.0, 0.5, 0.5, -2.0, 0.5, -2.0, 0.5, -2.0, 0.5, -2.0, -2.0, -2.0], "feature": [12, 22, -2, 2, -2, 5, 14, -2, 11, -2, 6, -2, -2, 16, -2, 7, -2, 1, 17, -2, -2, 0, -2, -2, 2, 13, 22, -2, 16, -2, 8, 9, 4, -2, -2, -2, 9, 10, 20, -2, -2, -2, -2, 16, 14, 10, 4, -2, 9, 20, -2, 0, -2, -2, -2, 20, 22, -2, 18, -2, -2, 8, 17, -2, -2, -2, 18, -2, -2, 8, 15, 5, 18, 20, -2, 17, -2, -2, -2, 4, 7, -2, -2, -2, 20, 22, 10, 5, -2, 21, 4, -2, -2, -2, -2, -2, -2, 22, -2, 11, 6, 7, -2, 21, -2, -2, -2, 10, 9, -2, -2, -2, 20, 15, 17, 14, 0, -2, 8, 11, 9, -2, -2, 19, 22, -2, -2, -2, 9, -2, 21, 16, -2, 7, -2, -2, 16, -2, -2, 7, 8, -2, -2, -2, 9, 8, 16, -2, -2, 22, 7, -2, -2, 19, -2, -2, 22, 7, 0, 10, -2, -2, -2, -2, -2, 16, 8, 4, 10, 9, -2, 6, 18, 11, -2, -2, -2, -2, -2, -2, 9, 6, -2, 0, -2, -2, 22, -2, -2, 13, 18, 6, 7, 8, -2, 0, 1, -2, -2, -2, -2, 22, 11, -2, -2, 19, 21, 3, 8, -2, -2, -2, -2, -2, 9, 4, -2, -2, 14, 22, 6, -2, -2, -2, -2, 8, 4, 9, 6, 18, 17, -2, 19, 3, 7, 14, -2, -2, -2, -2, -2, -2, -2, -2, 17, 11, 21, 0, 6, 5, 22, -2, -2, -2, -2, -2, -2, -2, -2, 9, 7, 14, 3, 17, -2, 0, -2, 5, -2, -2, 22, -2, -2, 18, -2, -2, 22, -2, -2, 5, 22, 7, -2, 1, -2, -2, 10, 7, 17, 11, -2, -2, -2, -2, -2, -2, 7, 8, 15, 9, 5, -2, -2, 1, 11, 13, -2, 4, -2, -2, -2, -2, 11, 9, 1, -2, 22, -2, -2, -2, -2, 5, 0, 18, -2, 15, -2, -2, 3, 9, 17, -2, -2, -2, -2, 22, 14, 10, -2, -2, -2, -2, 15, 11, -2, 18, -2, 8, -2, 0, -2, -2, -2], "classes": [0, 1], "value": [[3990.0, 4010.0], [2802.0, 8.0], [2237.0, 0.0], [565.0, 8.0], [420.0, 0.0], [145.0, 8.0], [124.0, 4.0], [123.0, 0.0], [1.0, 4.0], [0.0, 2.0], [1.0, 2.0], [1.0, 0.0], [0.0, 2.0], [21.0, 4.0], [16.0, 0.0], [5.0, 4.0], [3.0, 0.0], [2.0, 4.0], [1.0, 2.0], [1.0, 0.0], [0.0, 2.0], [1.0, 2.0], [0.0, 2.0], [1.0, 0.0], [1188.0, 4002.0], [874.0, 195.0], [535.0, 14.0], [444.0, 0.0], [91.0, 14.0], [72.0, 0.0], [19.0, 14.0], [3.0, 12.0], [3.0, 4.0], [3.0, 0.0], [0.0, 4.0], [0.0, 8.0], [16.0, 2.0], [7.0, 2.0], [1.0, 2.0], [1.0, 0.0], [0.0, 2.0], [6.0, 0.0], [9.0, 0.0], [339.0, 181.0], [208.0, 10.0], [203.0, 7.0], [162.0, 2.0], [125.0, 0.0], [37.0, 2.0], [21.0, 2.0], [20.0, 0.0], [1.0, 2.0], [1.0, 0.0], [0.0, 2.0], [16.0, 0.0], [41.0, 5.0], [34.0, 1.0], [32.0, 0.0], [2.0, 1.0], [2.0, 0.0], [0.0, 1.0], [7.0, 4.0], [1.0, 4.0], [1.0, 0.0], [0.0, 4.0], [6.0, 0.0], [5.0, 3.0], [5.0, 0.0], [0.0, 3.0], [131.0, 171.0], [21.0, 161.0], [16.0, 18.0], [9.0, 2.0], [9.0, 1.0], [8.0, 0.0], [1.0, 1.0], [0.0, 1.0], [1.0, 0.0], [0.0, 1.0], [7.0, 16.0], [7.0, 2.0], [7.0, 0.0], [0.0, 2.0], [0.0, 14.0], [5.0, 143.0], [5.0, 69.0], [5.0, 18.0], [5.0, 4.0], [4.0, 0.0], [1.0, 4.0], [1.0, 2.0], [1.0, 0.0], [0.0, 2.0], [0.0, 2.0], [0.0, 14.0], [0.0, 51.0], [0.0, 74.0], [110.0, 10.0], [93.0, 0.0], [17.0, 10.0], [14.0, 2.0], [12.0, 2.0], [11.0, 0.0], [1.0, 2.0], [0.0, 2.0], [1.0, 0.0], [2.0, 0.0], [3.0, 8.0], [3.0, 5.0], [3.0, 0.0], [0.0, 5.0], [0.0, 3.0], [314.0, 3807.0], [286.0, 1920.0], [203.0, 96.0], [160.0, 13.0], [156.0, 7.0], [93.0, 0.0], [63.0, 7.0], [13.0, 4.0], [11.0, 1.0], [11.0, 0.0], [0.0, 1.0], [2.0, 3.0], [2.0, 2.0], [2.0, 0.0], [0.0, 2.0], [0.0, 1.0], [50.0, 3.0], [33.0, 0.0], [17.0, 3.0], [15.0, 1.0], [9.0, 0.0], [6.0, 1.0], [6.0, 0.0], [0.0, 1.0], [2.0, 2.0], [2.0, 0.0], [0.0, 2.0], [4.0, 6.0], [4.0, 1.0], [0.0, 1.0], [4.0, 0.0], [0.0, 5.0], [43.0, 83.0], [34.0, 16.0], [4.0, 11.0], [4.0, 0.0], [0.0, 11.0], [30.0, 5.0], [22.0, 1.0], [22.0, 0.0], [0.0, 1.0], [8.0, 4.0], [8.0, 0.0], [0.0, 4.0], [9.0, 67.0], [9.0, 11.0], [9.0, 1.0], [3.0, 1.0], [3.0, 0.0], [0.0, 1.0], [6.0, 0.0], [0.0, 10.0], [0.0, 56.0], [83.0, 1824.0], [42.0, 69.0], [5.0, 63.0], [5.0, 9.0], [5.0, 7.0], [3.0, 0.0], [2.0, 7.0], [2.0, 3.0], [2.0, 2.0], [0.0, 2.0], [2.0, 0.0], [0.0, 1.0], [0.0, 4.0], [0.0, 2.0], [0.0, 54.0], [37.0, 6.0], [29.0, 1.0], [28.0, 0.0], [1.0, 1.0], [1.0, 0.0], [0.0, 1.0], [8.0, 5.0], [8.0, 0.0], [0.0, 5.0], [41.0, 1755.0], [20.0, 125.0], [15.0, 64.0], [12.0, 28.0], [12.0, 9.0], [0.0, 6.0], [12.0, 3.0], [5.0, 3.0], [5.0, 0.0], [0.0, 3.0], [7.0, 0.0], [0.0, 19.0], [3.0, 36.0], [2.0, 4.0], [2.0, 0.0], [0.0, 4.0], [1.0, 32.0], [1.0, 20.0], [1.0, 8.0], [1.0, 7.0], [0.0, 7.0], [1.0, 0.0], [0.0, 1.0], [0.0, 12.0], [0.0, 12.0], [5.0, 61.0], [2.0, 6.0], [2.0, 0.0], [0.0, 6.0], [3.0, 55.0], [3.0, 34.0], [3.0, 4.0], [3.0, 0.0], [0.0, 4.0], [0.0, 30.0], [0.0, 21.0], [21.0, 1630.0], [6.0, 1478.0], [5.0, 283.0], [5.0, 25.0], [5.0, 11.0], [5.0, 5.0], [4.0, 0.0], [1.0, 5.0], [1.0, 3.0], [1.0, 2.0], [1.0, 1.0], [1.0, 0.0], [0.0, 1.0], [0.0, 1.0], [0.0, 1.0], [0.0, 2.0], [0.0, 6.0], [0.0, 14.0], [0.0, 258.0], [1.0, 1195.0], [1.0, 247.0], [1.0, 45.0], [1.0, 26.0], [1.0, 18.0], [1.0, 9.0], [1.0, 2.0], [1.0, 0.0], [0.0, 2.0], [0.0, 7.0], [0.0, 9.0], [0.0, 8.0], [0.0, 19.0], [0.0, 202.0], [0.0, 948.0], [15.0, 152.0], [11.0, 32.0], [8.0, 9.0], [7.0, 8.0], [6.0, 6.0], [4.0, 0.0], [2.0, 6.0], [0.0, 4.0], [2.0, 2.0], [2.0, 0.0], [0.0, 2.0], [1.0, 2.0], [1.0, 0.0], [0.0, 2.0], [1.0, 1.0], [0.0, 1.0], [1.0, 0.0], [3.0, 23.0], [3.0, 0.0], [0.0, 23.0], [4.0, 120.0], [4.0, 43.0], [3.0, 9.0], [0.0, 3.0], [3.0, 6.0], [3.0, 0.0], [0.0, 6.0], [1.0, 34.0], [1.0, 16.0], [1.0, 5.0], [1.0, 1.0], [1.0, 0.0], [0.0, 1.0], [0.0, 4.0], [0.0, 11.0], [0.0, 18.0], [0.0, 77.0], [28.0, 1887.0], [26.0, 686.0], [7.0, 627.0], [6.0, 37.0], [4.0, 3.0], [0.0, 3.0], [4.0, 0.0], [2.0, 34.0], [2.0, 8.0], [2.0, 1.0], [1.0, 0.0], [1.0, 1.0], [1.0, 0.0], [0.0, 1.0], [0.0, 7.0], [0.0, 26.0], [1.0, 590.0], [1.0, 101.0], [1.0, 7.0], [0.0, 5.0], [1.0, 2.0], [1.0, 0.0], [0.0, 2.0], [0.0, 94.0], [0.0, 489.0], [19.0, 59.0], [17.0, 19.0], [15.0, 3.0], [13.0, 0.0], [2.0, 3.0], [2.0, 0.0], [0.0, 3.0], [2.0, 16.0], [2.0, 12.0], [2.0, 2.0], [2.0, 0.0], [0.0, 2.0], [0.0, 10.0], [0.0, 4.0], [2.0, 40.0], [2.0, 8.0], [2.0, 6.0], [2.0, 0.0], [0.0, 6.0], [0.0, 2.0], [0.0, 32.0], [2.0, 1201.0], [2.0, 85.0], [0.0, 22.0], [2.0, 63.0], [0.0, 30.0], [2.0, 33.0], [0.0, 26.0], [2.0, 7.0], [2.0, 0.0], [0.0, 7.0], [0.0, 1116.0]]}, {"children_left": [1, 2, 3, 4, -1, 6, -1, 8, -1, 10, -1, -1, 13, 14, -1, 16, -1, 18, -1, -1, 21, -1, 23, 24, -1, 26, -1, -1, -1, 30, 31, 32, 33, 34, -1, 36, -1, 38, -1, -1, 41, -1, 43, 44, 45, -1, -1, -1, -1, 50, -1, 52, 53, 54, 55, 56, -1, 58, -1, -1, -1, -1, -1, -1, 65, 66, 67, -1, 69, -1, -1, -1, 73, 74, 75, 76, -1, 78, -1, -1, -1, -1, -1, 84, 85, 86, 87, -1, -1, 90, -1, 92, 93, -1, -1, -1, 97, 98, 99, 100, -1, 102, 103, -1, -1, -1, -1, 108, 109, 110, -1, 112, -1, -1, -1, -1, 117, 118, 119, 120, -1, 122, 123, -1, -1, -1, -1, -1, -1, 130, 131, 132, 133, 134, -1, 136, -1, 138, -1, -1, -1, 142, 143, 144, -1, -1, -1, 148, 149, 150, 151, -1, -1, -1, -1, -1, 157, 158, 159, 160, 161, -1, 163, -1, -1, -1, -1, -1, -1, 170, 171, 172, 173, 174, -1, 176, -1, -1, 179, -1, -1, -1, -1, -1, 185, 186, 187, 188, -1, 190, -1, 192, -1, 194, 195, -1, 197, -1, -1, 200, -1, 202, -1, 204, 205, -1, -1, -1, 209, 210, -1, 212, -1, 214, -1, -1, 217, 218, -1, 220, -1, -1, 223, 224, -1, 226, 227, -1, 229, -1, -1, -1, -1, 234, -1, 236, 237, 238, -1, 240, -1, 242, -1, 244, -1, -1, 247, -1, 249, 250, 251, -1, -1, 254, 255, -1, -1, -1, -1, 260, 261, 262, -1, 264, -1, -1, 267, -1, -1, -1, 271, 272, 273, 274, 275, 276, -1, 278, -1, -1, -1, -1, 283, -1, 285, -1, 287, -1, 289, -1, 291, 292, -1, -1, -1, 296, -1, 298, 299, -1, -1, -1, 303, 304, 305, -1, 307, 308, -1, 310, -1, -1, 313, 314, -1, -1, 317, -1, 319, -1, -1, 322, 323, 324, 325, -1, 327, -1, -1, 330, 331, 332, -1, -1, -1, -1, -1, 338, 339, 340, 341, -1, 343, -1, -1, 346, 347, -1, -1, 350, 351, -1, -1, -1, -1, 356, 357, 358, -1, -1, -1, -1, 363, 364, 365, -1, -1, 368, -1, -1, 371, 372, 373, -1, -1, -1, -1], "children_right": [184, 29, 12, 5, -1, 7, -1, 9, -1, 11, -1, -1, 20, 15, -1, 17, -1, 19, -1, -1, 22, -1, 28, 25, -1, 27, -1, -1, -1, 83, 64, 49, 40, 35, -1, 37, -1, 39, -1, -1, 42, -1, 48, 47, 46, -1, -1, -1, -1, 51, -1, 63, 62, 61, 60, 57, -1, 59, -1, -1, -1, -1, -1, -1, 72, 71, 68, -1, 70, -1, -1, -1, 82, 81, 80, 77, -1, 79, -1, -1, -1, -1, -1, 129, 96, 89, 88, -1, -1, 91, -1, 95, 94, -1, -1, -1, 116, 107, 106, 101, -1, 105, 104, -1, -1, -1, -1, 115, 114, 111, -1, 113, -1, -1, -1, -1, 128, 127, 126, 121, -1, 125, 124, -1, -1, -1, -1, -1, -1, 169, 156, 141, 140, 135, -1, 137, -1, 139, -1, -1, -1, 147, 146, 145, -1, -1, -1, 155, 154, 153, 152, -1, -1, -1, -1, -1, 168, 167, 166, 165, 162, -1, 164, -1, -1, -1, -1, -1, -1, 183, 182, 181, 178, 175, -1, 177, -1, -1, 180, -1, -1, -1, -1, -1, 270, 233, 208, 189, -1, 191, -1, 193, -1, 199, 196, -1, 198, -1, -1, 201, -1, 203, -1, 207, 206, -1, -1, -1, 216, 211, -1, 213, -1, 215, -1, -1, 222, 219, -1, 221, -1, -1, 232, 225, -1, 231, 228, -1, 230, -1, -1, -1, -1, 235, -1, 259, 246, 239, -1, 241, -1, 243, -1, 245, -1, -1, 248, -1, 258, 253, 252, -1, -1, 257, 256, -1, -1, -1, -1, 269, 266, 263, -1, 265, -1, -1, 268, -1, -1, -1, 302, 295, 282, 281, 280, 277, -1, 279, -1, -1, -1, -1, 284, -1, 286, -1, 288, -1, 290, -1, 294, 293, -1, -1, -1, 297, -1, 301, 300, -1, -1, -1, 362, 321, 306, -1, 312, 309, -1, 311, -1, -1, 316, 315, -1, -1, 318, -1, 320, -1, -1, 337, 336, 329, 326, -1, 328, -1, -1, 335, 334, 333, -1, -1, -1, -1, -1, 355, 354, 345, 342, -1, 344, -1, -1, 349, 348, -1, -1, 353, 352, -1, -1, -1, -1, 361, 360, 359, -1, -1, -1, -1, 370, 367, 366, -1, -1, 369, -1, -1, 376, 375, 374, -1, -1, -1, -1], "threshold": [0.5, 0.5, 0.5, 0.5, -2.0, 0.5, -2.0, 0.5, -2.0, 0.5, -2.0, -2.0, 0.5, 0.5, -2.0, 0.5, -2.0, 0.5, -2.0, -2.0, 0.5, -2.0, 0.5, 0.5, -2.0, 0.5, -2.0, -2.0, -2.0, 0.5, 0.5, 0.5, 0.5, 0.5, -2.0, 0.5, -2.0, 0.5, -2.0, -2.0, 0.5, -2.0, 0.5, 0.5, 0.5, -2.0, -2.0, -2.0, -2.0, 0.5, -2.0, 0.5, 0.5, 0.5, 0.5, 0.5, -2.0, 0.5, -2.0, -2.0, -2.0, -2.0, -2.0, -2.0, 0.5, 0.5, 0.5, -2.0, 0.5, -2.0, -2.0, -2.0, 0.5, 0.5, 0.5, 0.5, -2.0, 0.5, -2.0, -2.0, -2.0, -2.0, -2.0, 0.5, 0.5, 0.5, 0.5, -2.0, -2.0, 0.5, -2.0, 0.5, 0.5, -2.0, -2.0, -2.0, 0.5, 0.5, 0.5, 0.5, -2.0, 0.5, 0.5, -2.0, -2.0, -2.0, -2.0, 0.5, 0.5, 0.5, -2.0, 0.5, -2.0, -2.0, -2.0, -2.0, 0.5, 0.5, 0.5, 0.5, -2.0, 0.5, 0.5, -2.0, -2.0, -2.0, -2.0, -2.0, -2.0, 0.5, 0.5, 0.5, 0.5, 0.5, -2.0, 0.5, -2.0, 0.5, -2.0, -2.0, -2.0, 0.5, 0.5, 0.5, -2.0, -2.0, -2.0, 0.5, 0.5, 0.5, 0.5, -2.0, -2.0, -2.0, -2.0, -2.0, 0.5, 0.5, 0.5, 0.5, 0.5, -2.0, 0.5, -2.0, -2.0, -2.0, -2.0, -2.0, -2.0, 0.5, 0.5, 0.5, 0.5, 0.5, -2.0, 0.5, -2.0, -2.0, 0.5, -2.0, -2.0, -2.0, -2.0, -2.0, 0.5, 0.5, 0.5, 0.5, -2.0, 0.5, -2.0, 0.5, -2.0, 0.5, 0.5, -2.0, 0.5, -2.0, -2.0, 0.5, -2.0, 0.5, -2.0, 0.5, 0.5, -2.0, -2.0, -2.0, 0.5, 0.5, -2.0, 0.5, -2.0, 0.5, -2.0, -2.0, 0.5, 0.5, -2.0, 0.5, -2.0, -2.0, 0.5, 0.5, -2.0, 0.5, 0.5, -2.0, 0.5, -2.0, -2.0, -2.0, -2.0, 0.5, -2.0, 0.5, 0.5, 0.5, -2.0, 0.5, -2.0, 0.5, -2.0, 0.5, -2.0, -2.0, 0.5, -2.0, 0.5, 0.5, 0.5, -2.0, -2.0, 0.5, 0.5, -2.0, -2.0, -2.0, -2.0, 0.5, 0.5, 0.5, -2.0, 0.5, -2.0, -2.0, 0.5, -2.0, -2.0, -2.0, 0.5, 0.5, 0.5, 0.5, 0.5, 0.5, -2.0, 0.5, -2.0, -2.0, -2.0, -2.0, 0.5, -2.0, 0.5, -2.0, 0.5, -2.0, 0.5, -2.0, 0.5, 0.5, -2.0, -2.0, -2.0, 0.5, -2.0, 0.5, 0.5, -2.0, -2.0, -2.0, 0.5, 0.5, 0.5, -2.0, 0.5, 0.5, -2.0, 0.5, -2.0, -2.0, 0.5, 0.5, -2.0, -2.0, 0.5, -2.0, 0.5, -2.0, -2.0, 0.5, 0.5, 0.5, 0.5, -2.0, 0.5, -2.0, -2.0, 0.5, 0.5, 0.5, -2.0, -2.0, -2.0, -2.0, -2.0, 0.5, 0.5, 0.5, 0.5, -2.0, 0.5, -2.0, -2.0, 0.5, 0.5, -2.0, -2.0, 0.5, 0.5, -2.0, -2.0, -2.0, -2.0, 0.5, 0.5, 0.5, -2.0, -2.0, -2.0, -2.0, 0.5, 0.5, 0.5, -2.0, -2.0, 0.5, -2.0, -2.0, 0.5, 0.5, 0.5, -2.0, -2.0, -2.0, -2.0], "feature": [8, 12, 2, 9, -2, 10, -2, 0, -2, 15, -2, -2, 6, 9, -2, 5, -2, 13, -2, -2, 9, -2, 1, 0, -2, 14, -2, -2, -2, 15, 22, 18, 2, 10, -2, 7, -2, 11, -2, -2, 13, -2, 7, 3, 14, -2, -2, -2, -2, 16, -2, 5, 6, 7, 14, 1, -2, 4, -2, -2, -2, -2, -2, -2, 16, 20, 0, -2, 1, -2, -2, -2, 9, 7, 20, 13, -2, 17, -2, -2, -2, -2, -2, 4, 13, 9, 7, -2, -2, 16, -2, 22, 2, -2, -2, -2, 22, 9, 10, 17, -2, 21, 0, -2, -2, -2, -2, 2, 17, 21, -2, 0, -2, -2, -2, -2, 10, 11, 17, 16, -2, 14, 20, -2, -2, -2, -2, -2, -2, 22, 1, 9, 21, 13, -2, 6, -2, 10, -2, -2, -2, 16, 7, 0, -2, -2, -2, 7, 3, 2, 5, -2, -2, -2, -2, -2, 21, 19, 9, 17, 18, -2, 13, -2, -2, -2, -2, -2, -2, 11, 5, 16, 18, 3, -2, 13, -2, -2, 17, -2, -2, -2, -2, -2, 17, 22, 6, 15, -2, 9, -2, 5, -2, 4, 16, -2, 2, -2, -2, 18, -2, 0, -2, 14, 7, -2, -2, -2, 16, 21, -2, 18, -2, 9, -2, -2, 9, 3, -2, 21, -2, -2, 7, 12, -2, 0, 21, -2, 1, -2, -2, -2, -2, 12, -2, 14, 2, 5, -2, 1, -2, 4, -2, 13, -2, -2, 16, -2, 5, 0, 7, -2, -2, 7, 21, -2, -2, -2, -2, 3, 9, 2, -2, 16, -2, -2, 4, -2, -2, -2, 16, 19, 0, 9, 21, 14, -2, 11, -2, -2, -2, -2, 12, -2, 22, -2, 9, -2, 13, -2, 5, 15, -2, -2, -2, 12, -2, 0, 2, -2, -2, -2, 14, 2, 9, -2, 1, 11, -2, 15, -2, -2, 4, 22, -2, -2, 21, -2, 13, -2, -2, 13, 3, 18, 19, -2, 6, -2, -2, 7, 20, 12, -2, -2, -2, -2, -2, 15, 20, 0, 1, -2, 21, -2, -2, 5, 11, -2, -2, 9, 6, -2, -2, -2, -2, 5, 9, 11, -2, -2, -2, -2, 2, 18, 19, -2, -2, 12, -2, -2, 15, 5, 6, -2, -2, -2, -2], "classes": [0, 1], "value": [[4055.0, 3945.0], [832.0, 3586.0], [604.0, 9.0], [412.0, 1.0], [288.0, 0.0], [124.0, 1.0], [102.0, 0.0], [22.0, 1.0], [16.0, 0.0], [6.0, 1.0], [6.0, 0.0], [0.0, 1.0], [192.0, 8.0], [165.0, 2.0], [122.0, 0.0], [43.0, 2.0], [38.0, 0.0], [5.0, 2.0], [5.0, 0.0], [0.0, 2.0], [27.0, 6.0], [23.0, 0.0], [4.0, 6.0], [4.0, 1.0], [3.0, 0.0], [1.0, 1.0], [0.0, 1.0], [1.0, 0.0], [0.0, 5.0], [228.0, 3577.0], [166.0, 249.0], [139.0, 55.0], [116.0, 20.0], [84.0, 1.0], [64.0, 0.0], [20.0, 1.0], [15.0, 0.0], [5.0, 1.0], [5.0, 0.0], [0.0, 1.0], [32.0, 19.0], [19.0, 0.0], [13.0, 19.0], [13.0, 3.0], [13.0, 2.0], [13.0, 0.0], [0.0, 2.0], [0.0, 1.0], [0.0, 16.0], [23.0, 35.0], [19.0, 0.0], [4.0, 35.0], [4.0, 15.0], [4.0, 9.0], [4.0, 2.0], [3.0, 2.0], [1.0, 0.0], [2.0, 2.0], [2.0, 0.0], [0.0, 2.0], [1.0, 0.0], [0.0, 7.0], [0.0, 6.0], [0.0, 20.0], [27.0, 194.0], [20.0, 3.0], [20.0, 2.0], [12.0, 0.0], [8.0, 2.0], [8.0, 0.0], [0.0, 2.0], [0.0, 1.0], [7.0, 191.0], [7.0, 27.0], [7.0, 6.0], [7.0, 3.0], [5.0, 0.0], [2.0, 3.0], [2.0, 0.0], [0.0, 3.0], [0.0, 3.0], [0.0, 21.0], [0.0, 164.0], [62.0, 3328.0], [51.0, 684.0], [35.0, 43.0], [23.0, 2.0], [23.0, 0.0], [0.0, 2.0], [12.0, 41.0], [10.0, 0.0], [2.0, 41.0], [2.0, 6.0], [2.0, 0.0], [0.0, 6.0], [0.0, 35.0], [16.0, 641.0], [15.0, 119.0], [12.0, 10.0], [12.0, 3.0], [10.0, 0.0], [2.0, 3.0], [2.0, 2.0], [2.0, 0.0], [0.0, 2.0], [0.0, 1.0], [0.0, 7.0], [3.0, 109.0], [3.0, 6.0], [3.0, 2.0], [2.0, 0.0], [1.0, 2.0], [0.0, 2.0], [1.0, 0.0], [0.0, 4.0], [0.0, 103.0], [1.0, 522.0], [1.0, 205.0], [1.0, 36.0], [1.0, 8.0], [0.0, 2.0], [1.0, 6.0], [1.0, 2.0], [1.0, 0.0], [0.0, 2.0], [0.0, 4.0], [0.0, 28.0], [0.0, 169.0], [0.0, 317.0], [11.0, 2644.0], [7.0, 475.0], [5.0, 181.0], [3.0, 18.0], [3.0, 15.0], [2.0, 0.0], [1.0, 15.0], [0.0, 9.0], [1.0, 6.0], [1.0, 0.0], [0.0, 6.0], [0.0, 3.0], [2.0, 163.0], [1.0, 11.0], [1.0, 1.0], [1.0, 0.0], [0.0, 1.0], [0.0, 10.0], [1.0, 152.0], [1.0, 63.0], [1.0, 49.0], [1.0, 1.0], [1.0, 0.0], [0.0, 1.0], [0.0, 48.0], [0.0, 14.0], [0.0, 89.0], [2.0, 294.0], [2.0, 141.0], [2.0, 105.0], [2.0, 12.0], [2.0, 4.0], [1.0, 0.0], [1.0, 4.0], [1.0, 0.0], [0.0, 4.0], [0.0, 8.0], [0.0, 93.0], [0.0, 36.0], [0.0, 153.0], [4.0, 2169.0], [4.0, 402.0], [4.0, 164.0], [4.0, 10.0], [2.0, 9.0], [0.0, 8.0], [2.0, 1.0], [2.0, 0.0], [0.0, 1.0], [2.0, 1.0], [2.0, 0.0], [0.0, 1.0], [0.0, 154.0], [0.0, 238.0], [0.0, 1767.0], [3223.0, 359.0], [2597.0, 71.0], [2091.0, 23.0], [1677.0, 9.0], [1181.0, 0.0], [496.0, 9.0], [367.0, 0.0], [129.0, 9.0], [101.0, 0.0], [28.0, 9.0], [19.0, 1.0], [15.0, 0.0], [4.0, 1.0], [4.0, 0.0], [0.0, 1.0], [9.0, 8.0], [6.0, 0.0], [3.0, 8.0], [0.0, 2.0], [3.0, 6.0], [3.0, 3.0], [3.0, 0.0], [0.0, 3.0], [0.0, 3.0], [414.0, 14.0], [275.0, 1.0], [228.0, 0.0], [47.0, 1.0], [41.0, 0.0], [6.0, 1.0], [6.0, 0.0], [0.0, 1.0], [139.0, 13.0], [107.0, 1.0], [101.0, 0.0], [6.0, 1.0], [6.0, 0.0], [0.0, 1.0], [32.0, 12.0], [32.0, 3.0], [27.0, 0.0], [5.0, 3.0], [5.0, 1.0], [4.0, 0.0], [1.0, 1.0], [1.0, 0.0], [0.0, 1.0], [0.0, 2.0], [0.0, 9.0], [506.0, 48.0], [363.0, 0.0], [143.0, 48.0], [136.0, 25.0], [95.0, 1.0], [72.0, 0.0], [23.0, 1.0], [17.0, 0.0], [6.0, 1.0], [4.0, 0.0], [2.0, 1.0], [0.0, 1.0], [2.0, 0.0], [41.0, 24.0], [29.0, 0.0], [12.0, 24.0], [12.0, 8.0], [5.0, 1.0], [5.0, 0.0], [0.0, 1.0], [7.0, 7.0], [7.0, 1.0], [7.0, 0.0], [0.0, 1.0], [0.0, 6.0], [0.0, 16.0], [7.0, 23.0], [7.0, 17.0], [6.0, 1.0], [2.0, 0.0], [4.0, 1.0], [4.0, 0.0], [0.0, 1.0], [1.0, 16.0], [1.0, 0.0], [0.0, 16.0], [0.0, 6.0], [626.0, 288.0], [459.0, 16.0], [445.0, 8.0], [313.0, 1.0], [235.0, 1.0], [182.0, 1.0], [173.0, 0.0], [9.0, 1.0], [9.0, 0.0], [0.0, 1.0], [53.0, 0.0], [78.0, 0.0], [132.0, 7.0], [85.0, 0.0], [47.0, 7.0], [36.0, 0.0], [11.0, 7.0], [8.0, 0.0], [3.0, 7.0], [1.0, 0.0], [2.0, 7.0], [2.0, 1.0], [2.0, 0.0], [0.0, 1.0], [0.0, 6.0], [14.0, 8.0], [12.0, 0.0], [2.0, 8.0], [2.0, 1.0], [2.0, 0.0], [0.0, 1.0], [0.0, 7.0], [167.0, 272.0], [160.0, 188.0], [110.0, 3.0], [73.0, 0.0], [37.0, 3.0], [21.0, 1.0], [15.0, 0.0], [6.0, 1.0], [6.0, 0.0], [0.0, 1.0], [16.0, 2.0], [9.0, 1.0], [9.0, 0.0], [0.0, 1.0], [7.0, 1.0], [5.0, 0.0], [2.0, 1.0], [2.0, 0.0], [0.0, 1.0], [50.0, 185.0], [33.0, 10.0], [33.0, 6.0], [30.0, 1.0], [28.0, 0.0], [2.0, 1.0], [0.0, 1.0], [2.0, 0.0], [3.0, 5.0], [3.0, 1.0], [2.0, 1.0], [2.0, 0.0], [0.0, 1.0], [1.0, 0.0], [0.0, 4.0], [0.0, 4.0], [17.0, 175.0], [13.0, 11.0], [13.0, 4.0], [11.0, 1.0], [8.0, 0.0], [3.0, 1.0], [3.0, 0.0], [0.0, 1.0], [2.0, 3.0], [1.0, 1.0], [1.0, 0.0], [0.0, 1.0], [1.0, 2.0], [1.0, 1.0], [1.0, 0.0], [0.0, 1.0], [0.0, 1.0], [0.0, 7.0], [4.0, 164.0], [4.0, 67.0], [4.0, 10.0], [4.0, 0.0], [0.0, 10.0], [0.0, 57.0], [0.0, 97.0], [7.0, 84.0], [6.0, 5.0], [5.0, 2.0], [5.0, 0.0], [0.0, 2.0], [1.0, 3.0], [1.0, 0.0], [0.0, 3.0], [1.0, 79.0], [1.0, 4.0], [1.0, 1.0], [0.0, 1.0], [1.0, 0.0], [0.0, 3.0], [0.0, 75.0]]}, {"children_left": [1, 2, 3, -1, 5, -1, 7, -1, 9, -1, 11, -1, -1, 14, -1, 16, 17, -1, 19, -1, -1, 22, 23, -1, 25, 26, -1, -1, 29, -1, -1, 32, -1, -1, 35, 36, 37, 38, 39, -1, 41, -1, 43, -1, 45, -1, -1, 48, 49, 50, 51, -1, 53, -1, 55, -1, -1, -1, 59, -1, 61, -1, 63, -1, 65, -1, -1, 68, -1, 70, 71, 72, -1, 74, -1, -1, -1, -1, 79, 80, 81, 82, -1, -1, -1, 86, -1, -1, -1, 90, 91, -1, 93, 94, -1, 96, 97, 98, -1, 100, -1, -1, 103, -1, -1, 106, 107, 108, -1, -1, -1, -1, 113, 114, -1, -1, 117, -1, 119, -1, -1, 122, 123, 124, -1, 126, -1, -1, 129, 130, -1, -1, -1, 134, -1, -1, 137, 138, 139, 140, -1, 142, 143, 144, -1, -1, -1, -1, 149, 150, -1, 152, 153, 154, -1, 156, 157, -1, -1, -1, -1, 162, 163, -1, 165, -1, -1, -1, 169, 170, 171, -1, -1, -1, 175, 176, 177, 178, -1, -1, -1, -1, -1, 184, 185, 186, -1, 188, 189, -1, 191, -1, -1, 194, -1, -1, 197, -1, -1, 200, 201, 202, -1, 204, -1, -1, 207, 208, 209, 210, -1, -1, -1, -1, -1, 216, 217, 218, 219, 220, 221, 222, -1, -1, -1, -1, -1, -1, -1, 230, 231, 232, 233, -1, -1, -1, 237, -1, -1, 240, 241, 242, 243, 244, -1, -1, -1, -1, -1, -1, 251, 252, 253, 254, 255, -1, 257, -1, -1, 260, -1, 262, 263, -1, -1, -1, 267, 268, 269, 270, 271, -1, -1, -1, -1, -1, 277, 278, -1, -1, -1, 282, 283, 284, 285, 286, -1, -1, -1, -1, -1, 292, 293, -1, 295, 296, -1, -1, -1, 300, -1, 302, 303, 304, -1, 306, -1, 308, -1, 310, -1, 312, -1, -1, -1, -1, 317, 318, 319, 320, 321, 322, 323, -1, 325, -1, -1, -1, -1, -1, -1, 332, 333, 334, 335, 336, 337, -1, -1, -1, -1, -1, -1, -1, 345, 346, 347, 348, -1, 350, -1, -1, 353, 354, 355, 356, 357, -1, -1, -1, -1, -1, -1, 364, 365, -1, -1, 368, 369, 370, -1, -1, -1, -1, -1], "children_right": [34, 13, 4, -1, 6, -1, 8, -1, 10, -1, 12, -1, -1, 15, -1, 21, 18, -1, 20, -1, -1, 31, 24, -1, 28, 27, -1, -1, 30, -1, -1, 33, -1, -1, 136, 89, 78, 47, 40, -1, 42, -1, 44, -1, 46, -1, -1, 67, 58, 57, 52, -1, 54, -1, 56, -1, -1, -1, 60, -1, 62, -1, 64, -1, 66, -1, -1, 69, -1, 77, 76, 73, -1, 75, -1, -1, -1, -1, 88, 85, 84, 83, -1, -1, -1, 87, -1, -1, -1, 121, 92, -1, 112, 95, -1, 105, 102, 99, -1, 101, -1, -1, 104, -1, -1, 111, 110, 109, -1, -1, -1, -1, 116, 115, -1, -1, 118, -1, 120, -1, -1, 133, 128, 125, -1, 127, -1, -1, 132, 131, -1, -1, -1, 135, -1, -1, 250, 183, 148, 141, -1, 147, 146, 145, -1, -1, -1, -1, 168, 151, -1, 161, 160, 155, -1, 159, 158, -1, -1, -1, -1, 167, 164, -1, 166, -1, -1, -1, 174, 173, 172, -1, -1, -1, 182, 181, 180, 179, -1, -1, -1, -1, -1, 199, 196, 187, -1, 193, 190, -1, 192, -1, -1, 195, -1, -1, 198, -1, -1, 215, 206, 203, -1, 205, -1, -1, 214, 213, 212, 211, -1, -1, -1, -1, -1, 229, 228, 227, 226, 225, 224, 223, -1, -1, -1, -1, -1, -1, -1, 239, 236, 235, 234, -1, -1, -1, 238, -1, -1, 249, 248, 247, 246, 245, -1, -1, -1, -1, -1, -1, 316, 281, 266, 259, 256, -1, 258, -1, -1, 261, -1, 265, 264, -1, -1, -1, 276, 275, 274, 273, 272, -1, -1, -1, -1, -1, 280, 279, -1, -1, -1, 291, 290, 289, 288, 287, -1, -1, -1, -1, -1, 299, 294, -1, 298, 297, -1, -1, -1, 301, -1, 315, 314, 305, -1, 307, -1, 309, -1, 311, -1, 313, -1, -1, -1, -1, 344, 331, 330, 329, 328, 327, 324, -1, 326, -1, -1, -1, -1, -1, -1, 343, 342, 341, 340, 339, 338, -1, -1, -1, -1, -1, -1, -1, 374, 363, 352, 349, -1, 351, -1, -1, 362, 361, 360, 359, 358, -1, -1, -1, -1, -1, -1, 367, 366, -1, -1, 373, 372, 371, -1, -1, -1, -1, -1], "threshold": [0.5, 0.5, 0.5, -2.0, 0.5, -2.0, 0.5, -2.0, 0.5, -2.0, 0.5, -2.0, -2.0, 0.5, -2.0, 0.5, 0.5, -2.0, 0.5, -2.0, -2.0, 0.5, 0.5, -2.0, 0.5, 0.5, -2.0, -2.0, 0.5, -2.0, -2.0, 0.5, -2.0, -2.0, 0.5, 0.5, 0.5, 0.5, 0.5, -2.0, 0.5, -2.0, 0.5, -2.0, 0.5, -2.0, -2.0, 0.5, 0.5, 0.5, 0.5, -2.0, 0.5, -2.0, 0.5, -2.0, -2.0, -2.0, 0.5, -2.0, 0.5, -2.0, 0.5, -2.0, 0.5, -2.0, -2.0, 0.5, -2.0, 0.5, 0.5, 0.5, -2.0, 0.5, -2.0, -2.0, -2.0, -2.0, 0.5, 0.5, 0.5, 0.5, -2.0, -2.0, -2.0, 0.5, -2.0, -2.0, -2.0, 0.5, 0.5, -2.0, 0.5, 0.5, -2.0, 0.5, 0.5, 0.5, -2.0, 0.5, -2.0, -2.0, 0.5, -2.0, -2.0, 0.5, 0.5, 0.5, -2.0, -2.0, -2.0, -2.0, 0.5, 0.5, -2.0, -2.0, 0.5, -2.0, 0.5, -2.0, -2.0, 0.5, 0.5, 0.5, -2.0, 0.5, -2.0, -2.0, 0.5, 0.5, -2.0, -2.0, -2.0, 0.5, -2.0, -2.0, 0.5, 0.5, 0.5, 0.5, -2.0, 0.5, 0.5, 0.5, -2.0, -2.0, -2.0, -2.0, 0.5, 0.5, -2.0, 0.5, 0.5, 0.5, -2.0, 0.5, 0.5, -2.0, -2.0, -2.0, -2.0, 0.5, 0.5, -2.0, 0.5, -2.0, -2.0, -2.0, 0.5, 0.5, 0.5, -2.0, -2.0, -2.0, 0.5, 0.5, 0.5, 0.5, -2.0, -2.0, -2.0, -2.0, -2.0, 0.5, 0.5, 0.5, -2.0, 0.5, 0.5, -2.0, 0.5, -2.0, -2.0, 0.5, -2.0, -2.0, 0.5, -2.0, -2.0, 0.5, 0.5, 0.5, -2.0, 0.5, -2.0, -2.0, 0.5, 0.5, 0.5, 0.5, -2.0, -2.0, -2.0, -2.0, -2.0, 0.5, 0.5, 0.5, 0.5, 0.5, 0.5, 0.5, -2.0, -2.0, -2.0, -2.0, -2.0, -2.0, -2.0, 0.5, 0.5, 0.5, 0.5, -2.0, -2.0, -2.0, 0.5, -2.0, -2.0, 0.5, 0.5, 0.5, 0.5, 0.5, -2.0, -2.0, -2.0, -2.0, -2.0, -2.0, 0.5, 0.5, 0.5, 0.5, 0.5, -2.0, 0.5, -2.0, -2.0, 0.5, -2.0, 0.5, 0.5, -2.0, -2.0, -2.0, 0.5, 0.5, 0.5, 0.5, 0.5, -2.0, -2.0, -2.0, -2.0, -2.0, 0.5, 0.5, -2.0, -2.0, -2.0, 0.5, 0.5, 0.5, 0.5, 0.5, -2.0, -2.0, -2.0, -2.0, -2.0, 0.5, 0.5, -2.0, 0.5, 0.5, -2.0, -2.0, -2.0, 0.5, -2.0, 0.5, 0.5, 0.5, -2.0, 0.5, -2.0, 0.5, -2.0, 0.5, -2.0, 0.5, -2.0, -2.0, -2.0, -2.0, 0.5, 0.5, 0.5, 0.5, 0.5, 0.5, 0.5, -2.0, 0.5, -2.0, -2.0, -2.0, -2.0, -2.0, -2.0, 0.5, 0.5, 0.5, 0.5, 0.5, 0.5, -2.0, -2.0, -2.0, -2.0, -2.0, -2.0, -2.0, 0.5, 0.5, 0.5, 0.5, -2.0, 0.5, -2.0, -2.0, 0.5, 0.5, 0.5, 0.5, 0.5, -2.0, -2.0, -2.0, -2.0, -2.0, -2.0, 0.5, 0.5, -2.0, -2.0, 0.5, 0.5, 0.5, -2.0, -2.0, -2.0, -2.0, -2.0], "feature": [12, 6, 21, -2, 16, -2, 13, -2, 2, -2, 7, -2, -2, 15, -2, 16, 1, -2, 14, -2, -2, 19, 21, -2, 18, 7, -2, -2, 11, -2, -2, 2, -2, -2, 15, 4, 7, 11, 22, -2, 6, -2, 17, -2, 2, -2, -2, 6, 10, 8, 9, -2, 5, -2, 14, -2, -2, -2, 16, -2, 22, -2, 18, -2, 13, -2, -2, 13, -2, 22, 19, 0, -2, 16, -2, -2, -2, -2, 20, 17, 8, 13, -2, -2, -2, 9, -2, -2, -2, 7, 16, -2, 20, 2, -2, 9, 6, 22, -2, 10, -2, -2, 5, -2, -2, 0, 17, 18, -2, -2, -2, -2, 13, 9, -2, -2, 8, -2, 17, -2, -2, 5, 2, 18, -2, 17, -2, -2, 0, 1, -2, -2, -2, 2, -2, -2, 17, 9, 16, 11, -2, 14, 8, 2, -2, -2, -2, -2, 7, 11, -2, 5, 18, 4, -2, 20, 8, -2, -2, -2, -2, 3, 1, -2, 4, -2, -2, -2, 11, 18, 1, -2, -2, -2, 6, 21, 20, 8, -2, -2, -2, -2, -2, 2, 7, 16, -2, 20, 22, -2, 8, -2, -2, 5, -2, -2, 16, -2, -2, 16, 22, 6, -2, 3, -2, -2, 1, 20, 6, 13, -2, -2, -2, -2, -2, 8, 6, 5, 22, 10, 1, 0, -2, -2, -2, -2, -2, -2, -2, 13, 5, 0, 1, -2, -2, -2, 0, -2, -2, 20, 22, 1, 10, 14, -2, -2, -2, -2, -2, -2, 9, 2, 4, 5, 13, -2, 0, -2, -2, 16, -2, 14, 21, -2, -2, -2, 6, 21, 18, 0, 5, -2, -2, -2, -2, -2, 5, 8, -2, -2, -2, 4, 22, 8, 18, 11, -2, -2, -2, -2, -2, 16, 13, -2, 5, 1, -2, -2, -2, 8, -2, 7, 10, 0, -2, 13, -2, 11, -2, 1, -2, 5, -2, -2, -2, -2, 8, 11, 16, 20, 6, 22, 1, -2, 2, -2, -2, -2, -2, -2, -2, 22, 21, 6, 1, 0, 16, -2, -2, -2, -2, -2, -2, -2, 6, 4, 13, 5, -2, 10, -2, -2, 20, 18, 19, 11, 16, -2, -2, -2, -2, -2, -2, 11, 2, -2, -2, 22, 18, 10, -2, -2, -2, -2, -2], "classes": [0, 1], "value": [[3952.0, 4048.0], [2763.0, 14.0], [2210.0, 1.0], [1799.0, 0.0], [411.0, 1.0], [312.0, 0.0], [99.0, 1.0], [70.0, 0.0], [29.0, 1.0], [22.0, 0.0], [7.0, 1.0], [7.0, 0.0], [0.0, 1.0], [553.0, 13.0], [400.0, 0.0], [153.0, 13.0], [109.0, 2.0], [75.0, 0.0], [34.0, 2.0], [34.0, 0.0], [0.0, 2.0], [44.0, 11.0], [41.0, 3.0], [35.0, 0.0], [6.0, 3.0], [4.0, 1.0], [4.0, 0.0], [0.0, 1.0], [2.0, 2.0], [2.0, 0.0], [0.0, 2.0], [3.0, 8.0], [3.0, 0.0], [0.0, 8.0], [1189.0, 4034.0], [846.0, 245.0], [592.0, 48.0], [548.0, 19.0], [415.0, 2.0], [339.0, 0.0], [76.0, 2.0], [69.0, 0.0], [7.0, 2.0], [6.0, 0.0], [1.0, 2.0], [1.0, 0.0], [0.0, 2.0], [133.0, 17.0], [111.0, 6.0], [98.0, 1.0], [16.0, 1.0], [7.0, 0.0], [9.0, 1.0], [7.0, 0.0], [2.0, 1.0], [2.0, 0.0], [0.0, 1.0], [82.0, 0.0], [13.0, 5.0], [10.0, 0.0], [3.0, 5.0], [2.0, 0.0], [1.0, 5.0], [0.0, 3.0], [1.0, 2.0], [1.0, 0.0], [0.0, 2.0], [22.0, 11.0], [12.0, 0.0], [10.0, 11.0], [10.0, 3.0], [10.0, 2.0], [9.0, 0.0], [1.0, 2.0], [1.0, 0.0], [0.0, 2.0], [0.0, 1.0], [0.0, 8.0], [44.0, 29.0], [44.0, 13.0], [38.0, 4.0], [6.0, 4.0], [6.0, 0.0], [0.0, 4.0], [32.0, 0.0], [6.0, 9.0], [6.0, 0.0], [0.0, 9.0], [0.0, 16.0], [254.0, 197.0], [240.0, 50.0], [167.0, 0.0], [73.0, 50.0], [62.0, 20.0], [40.0, 0.0], [22.0, 20.0], [19.0, 3.0], [18.0, 1.0], [14.0, 0.0], [4.0, 1.0], [4.0, 0.0], [0.0, 1.0], [1.0, 2.0], [1.0, 0.0], [0.0, 2.0], [3.0, 17.0], [3.0, 9.0], [3.0, 1.0], [3.0, 0.0], [0.0, 1.0], [0.0, 8.0], [0.0, 8.0], [11.0, 30.0], [5.0, 1.0], [5.0, 0.0], [0.0, 1.0], [6.0, 29.0], [0.0, 26.0], [6.0, 3.0], [6.0, 0.0], [0.0, 3.0], [14.0, 147.0], [13.0, 59.0], [11.0, 1.0], [8.0, 0.0], [3.0, 1.0], [3.0, 0.0], [0.0, 1.0], [2.0, 58.0], [2.0, 8.0], [2.0, 0.0], [0.0, 8.0], [0.0, 50.0], [1.0, 88.0], [1.0, 0.0], [0.0, 88.0], [343.0, 3789.0], [256.0, 762.0], [184.0, 85.0], [129.0, 3.0], [89.0, 0.0], [40.0, 3.0], [40.0, 2.0], [5.0, 2.0], [5.0, 0.0], [0.0, 2.0], [35.0, 0.0], [0.0, 1.0], [55.0, 82.0], [53.0, 28.0], [41.0, 0.0], [12.0, 28.0], [11.0, 11.0], [11.0, 5.0], [4.0, 0.0], [7.0, 5.0], [7.0, 1.0], [0.0, 1.0], [7.0, 0.0], [0.0, 4.0], [0.0, 6.0], [1.0, 17.0], [1.0, 12.0], [0.0, 2.0], [1.0, 10.0], [1.0, 0.0], [0.0, 10.0], [0.0, 5.0], [2.0, 54.0], [1.0, 11.0], [1.0, 2.0], [0.0, 2.0], [1.0, 0.0], [0.0, 9.0], [1.0, 43.0], [1.0, 21.0], [1.0, 7.0], [1.0, 4.0], [0.0, 4.0], [1.0, 0.0], [0.0, 3.0], [0.0, 14.0], [0.0, 22.0], [72.0, 677.0], [45.0, 29.0], [44.0, 9.0], [28.0, 0.0], [16.0, 9.0], [15.0, 4.0], [14.0, 0.0], [1.0, 4.0], [0.0, 4.0], [1.0, 0.0], [1.0, 5.0], [1.0, 0.0], [0.0, 5.0], [1.0, 20.0], [1.0, 0.0], [0.0, 20.0], [27.0, 648.0], [20.0, 35.0], [15.0, 2.0], [11.0, 0.0], [4.0, 2.0], [4.0, 0.0], [0.0, 2.0], [5.0, 33.0], [5.0, 17.0], [5.0, 4.0], [2.0, 4.0], [2.0, 0.0], [0.0, 4.0], [3.0, 0.0], [0.0, 13.0], [0.0, 16.0], [7.0, 613.0], [1.0, 568.0], [1.0, 280.0], [1.0, 132.0], [1.0, 24.0], [1.0, 11.0], [1.0, 1.0], [1.0, 0.0], [0.0, 1.0], [0.0, 10.0], [0.0, 13.0], [0.0, 108.0], [0.0, 148.0], [0.0, 288.0], [6.0, 45.0], [4.0, 4.0], [1.0, 3.0], [1.0, 1.0], [1.0, 0.0], [0.0, 1.0], [0.0, 2.0], [3.0, 1.0], [0.0, 1.0], [3.0, 0.0], [2.0, 41.0], [2.0, 17.0], [2.0, 8.0], [2.0, 2.0], [1.0, 2.0], [1.0, 0.0], [0.0, 2.0], [1.0, 0.0], [0.0, 6.0], [0.0, 9.0], [0.0, 24.0], [87.0, 3027.0], [69.0, 351.0], [48.0, 12.0], [36.0, 6.0], [28.0, 1.0], [16.0, 0.0], [12.0, 1.0], [12.0, 0.0], [0.0, 1.0], [8.0, 5.0], [7.0, 0.0], [1.0, 5.0], [1.0, 2.0], [0.0, 2.0], [1.0, 0.0], [0.0, 3.0], [12.0, 6.0], [10.0, 1.0], [9.0, 1.0], [3.0, 1.0], [2.0, 1.0], [2.0, 0.0], [0.0, 1.0], [1.0, 0.0], [6.0, 0.0], [1.0, 0.0], [2.0, 5.0], [2.0, 1.0], [0.0, 1.0], [2.0, 0.0], [0.0, 4.0], [21.0, 339.0], [13.0, 49.0], [13.0, 10.0], [1.0, 10.0], [1.0, 3.0], [0.0, 3.0], [1.0, 0.0], [0.0, 7.0], [12.0, 0.0], [0.0, 39.0], [8.0, 290.0], [3.0, 11.0], [1.0, 0.0], [2.0, 11.0], [2.0, 2.0], [2.0, 0.0], [0.0, 2.0], [0.0, 9.0], [5.0, 279.0], [0.0, 254.0], [5.0, 25.0], [5.0, 11.0], [5.0, 7.0], [0.0, 1.0], [5.0, 6.0], [0.0, 1.0], [5.0, 5.0], [4.0, 0.0], [1.0, 5.0], [0.0, 2.0], [1.0, 3.0], [0.0, 3.0], [1.0, 0.0], [0.0, 4.0], [0.0, 14.0], [18.0, 2676.0], [5.0, 2448.0], [4.0, 466.0], [4.0, 27.0], [4.0, 12.0], [4.0, 7.0], [4.0, 1.0], [3.0, 0.0], [1.0, 1.0], [1.0, 0.0], [0.0, 1.0], [0.0, 6.0], [0.0, 5.0], [0.0, 15.0], [0.0, 439.0], [1.0, 1982.0], [1.0, 319.0], [1.0, 165.0], [1.0, 70.0], [1.0, 36.0], [1.0, 5.0], [1.0, 0.0], [0.0, 5.0], [0.0, 31.0], [0.0, 34.0], [0.0, 95.0], [0.0, 154.0], [0.0, 1663.0], [13.0, 228.0], [13.0, 122.0], [8.0, 17.0], [6.0, 2.0], [5.0, 0.0], [1.0, 2.0], [1.0, 0.0], [0.0, 2.0], [2.0, 15.0], [2.0, 7.0], [2.0, 3.0], [2.0, 2.0], [2.0, 1.0], [2.0, 0.0], [0.0, 1.0], [0.0, 1.0], [0.0, 1.0], [0.0, 4.0], [0.0, 8.0], [5.0, 105.0], [2.0, 31.0], [2.0, 0.0], [0.0, 31.0], [3.0, 74.0], [3.0, 21.0], [3.0, 7.0], [3.0, 0.0], [0.0, 7.0], [0.0, 14.0], [0.0, 53.0], [0.0, 106.0]]}, {"children_left": [1, 2, 3, -1, 5, 6, 7, 8, -1, 10, -1, 12, 13, -1, 15, -1, 17, -1, -1, 20, -1, -1, 23, -1, 25, 26, -1, 28, 29, -1, -1, -1, 33, -1, -1, 36, -1, 38, 39, -1, 41, -1, -1, -1, 45, 46, -1, 48, 49, -1, -1, -1, 53, -1, 55, 56, -1, 58, -1, 60, -1, -1, -1, 64, 65, -1, 67, 68, -1, 70, -1, 72, -1, -1, 75, -1, 77, -1, -1, 80, 81, 82, -1, 84, -1, 86, 87, -1, -1, 90, -1, -1, 93, 94, -1, 96, -1, 98, -1, 100, -1, -1, 103, 104, 105, -1, -1, 108, -1, -1, -1, 112, 113, 114, 115, 116, -1, 118, 119, -1, -1, -1, -1, 124, -1, 126, 127, -1, -1, -1, 131, 132, 133, 134, 135, 136, 137, -1, -1, -1, -1, -1, 143, 144, -1, -1, -1, -1, 149, 150, -1, 152, -1, 154, 155, -1, -1, -1, 159, -1, 161, 162, -1, -1, -1, 166, 167, -1, -1, -1, 171, 172, 173, 174, -1, 176, -1, 178, -1, -1, 181, 182, -1, 184, -1, 186, 187, -1, 189, 190, -1, -1, -1, -1, 195, 196, -1, 198, -1, -1, 201, -1, -1, 204, -1, 206, -1, 208, -1, -1, 211, 212, 213, 214, -1, 216, 217, 218, -1, 220, -1, 222, 223, 224, -1, -1, -1, -1, 229, -1, 231, 232, -1, -1, -1, 236, -1, 238, 239, -1, -1, -1, 243, 244, 245, -1, 247, -1, 249, -1, -1, 252, -1, -1, 255, -1, 257, 258, 259, 260, 261, -1, 263, -1, -1, 266, -1, -1, -1, -1, -1, 272, 273, 274, -1, 276, -1, 278, 279, -1, -1, -1, 283, 284, 285, -1, -1, 288, 289, -1, -1, -1, -1, 294, 295, 296, -1, 298, 299, -1, -1, -1, 303, 304, 305, 306, 307, -1, -1, -1, -1, -1, -1, 314, 315, -1, -1, -1, 319, 320, 321, 322, 323, -1, -1, 326, 327, -1, -1, 330, 331, -1, 333, 334, -1, -1, -1, -1, -1, 340, 341, 342, 343, 344, 345, 346, 347, -1, -1, -1, -1, -1, -1, -1, -1, -1, 357, 358, 359, 360, -1, 362, -1, -1, 365, 366, 367, -1, -1, 370, 371, -1, -1, -1, 375, 376, -1, -1, -1, 380, 381, 382, 383, -1, 385, -1, -1, -1, -1, 390, 391, 392, -1, -1, 395, 396, -1, -1, -1, -1, 401, 402, 403, 404, -1, 406, 407, -1, -1, -1, 411, -1, -1, 414, 415, -1, -1, -1, 419, 420, 421, -1, -1, 424, 425, -1, -1, -1, -1], "children_right": [170, 63, 4, -1, 44, 35, 22, 9, -1, 11, -1, 19, 14, -1, 16, -1, 18, -1, -1, 21, -1, -1, 24, -1, 32, 27, -1, 31, 30, -1, -1, -1, 34, -1, -1, 37, -1, 43, 40, -1, 42, -1, -1, -1, 52, 47, -1, 51, 50, -1, -1, -1, 54, -1, 62, 57, -1, 59, -1, 61, -1, -1, -1, 79, 66, -1, 74, 69, -1, 71, -1, 73, -1, -1, 76, -1, 78, -1, -1, 111, 92, 83, -1, 85, -1, 89, 88, -1, -1, 91, -1, -1, 102, 95, -1, 97, -1, 99, -1, 101, -1, -1, 110, 107, 106, -1, -1, 109, -1, -1, -1, 165, 130, 123, 122, 117, -1, 121, 120, -1, -1, -1, -1, 125, -1, 129, 128, -1, -1, -1, 148, 147, 142, 141, 140, 139, 138, -1, -1, -1, -1, -1, 146, 145, -1, -1, -1, -1, 158, 151, -1, 153, -1, 157, 156, -1, -1, -1, 160, -1, 164, 163, -1, -1, -1, 169, 168, -1, -1, -1, 210, 203, 180, 175, -1, 177, -1, 179, -1, -1, 194, 183, -1, 185, -1, 193, 188, -1, 192, 191, -1, -1, -1, -1, 200, 197, -1, 199, -1, -1, 202, -1, -1, 205, -1, 207, -1, 209, -1, -1, 318, 271, 242, 215, -1, 235, 228, 219, -1, 221, -1, 227, 226, 225, -1, -1, -1, -1, 230, -1, 234, 233, -1, -1, -1, 237, -1, 241, 240, -1, -1, -1, 254, 251, 246, -1, 248, -1, 250, -1, -1, 253, -1, -1, 256, -1, 270, 269, 268, 265, 262, -1, 264, -1, -1, 267, -1, -1, -1, -1, -1, 293, 282, 275, -1, 277, -1, 281, 280, -1, -1, -1, 292, 287, 286, -1, -1, 291, 290, -1, -1, -1, -1, 313, 302, 297, -1, 301, 300, -1, -1, -1, 312, 311, 310, 309, 308, -1, -1, -1, -1, -1, -1, 317, 316, -1, -1, -1, 356, 339, 338, 325, 324, -1, -1, 329, 328, -1, -1, 337, 332, -1, 336, 335, -1, -1, -1, -1, -1, 355, 354, 353, 352, 351, 350, 349, 348, -1, -1, -1, -1, -1, -1, -1, -1, -1, 400, 379, 364, 361, -1, 363, -1, -1, 374, 369, 368, -1, -1, 373, 372, -1, -1, -1, 378, 377, -1, -1, -1, 389, 388, 387, 384, -1, 386, -1, -1, -1, -1, 399, 394, 393, -1, -1, 398, 397, -1, -1, -1, -1, 418, 413, 410, 405, -1, 409, 408, -1, -1, -1, 412, -1, -1, 417, 416, -1, -1, -1, 428, 423, 422, -1, -1, 427, 426, -1, -1, -1, -1], "threshold": [0.5, 0.5, 0.5, -2.0, 0.5, 0.5, 0.5, 0.5, -2.0, 0.5, -2.0, 0.5, 0.5, -2.0, 0.5, -2.0, 0.5, -2.0, -2.0, 0.5, -2.0, -2.0, 0.5, -2.0, 0.5, 0.5, -2.0, 0.5, 0.5, -2.0, -2.0, -2.0, 0.5, -2.0, -2.0, 0.5, -2.0, 0.5, 0.5, -2.0, 0.5, -2.0, -2.0, -2.0, 0.5, 0.5, -2.0, 0.5, 0.5, -2.0, -2.0, -2.0, 0.5, -2.0, 0.5, 0.5, -2.0, 0.5, -2.0, 0.5, -2.0, -2.0, -2.0, 0.5, 0.5, -2.0, 0.5, 0.5, -2.0, 0.5, -2.0, 0.5, -2.0, -2.0, 0.5, -2.0, 0.5, -2.0, -2.0, 0.5, 0.5, 0.5, -2.0, 0.5, -2.0, 0.5, 0.5, -2.0, -2.0, 0.5, -2.0, -2.0, 0.5, 0.5, -2.0, 0.5, -2.0, 0.5, -2.0, 0.5, -2.0, -2.0, 0.5, 0.5, 0.5, -2.0, -2.0, 0.5, -2.0, -2.0, -2.0, 0.5, 0.5, 0.5, 0.5, 0.5, -2.0, 0.5, 0.5, -2.0, -2.0, -2.0, -2.0, 0.5, -2.0, 0.5, 0.5, -2.0, -2.0, -2.0, 0.5, 0.5, 0.5, 0.5, 0.5, 0.5, 0.5, -2.0, -2.0, -2.0, -2.0, -2.0, 0.5, 0.5, -2.0, -2.0, -2.0, -2.0, 0.5, 0.5, -2.0, 0.5, -2.0, 0.5, 0.5, -2.0, -2.0, -2.0, 0.5, -2.0, 0.5, 0.5, -2.0, -2.0, -2.0, 0.5, 0.5, -2.0, -2.0, -2.0, 0.5, 0.5, 0.5, 0.5, -2.0, 0.5, -2.0, 0.5, -2.0, -2.0, 0.5, 0.5, -2.0, 0.5, -2.0, 0.5, 0.5, -2.0, 0.5, 0.5, -2.0, -2.0, -2.0, -2.0, 0.5, 0.5, -2.0, 0.5, -2.0, -2.0, 0.5, -2.0, -2.0, 0.5, -2.0, 0.5, -2.0, 0.5, -2.0, -2.0, 0.5, 0.5, 0.5, 0.5, -2.0, 0.5, 0.5, 0.5, -2.0, 0.5, -2.0, 0.5, 0.5, 0.5, -2.0, -2.0, -2.0, -2.0, 0.5, -2.0, 0.5, 0.5, -2.0, -2.0, -2.0, 0.5, -2.0, 0.5, 0.5, -2.0, -2.0, -2.0, 0.5, 0.5, 0.5, -2.0, 0.5, -2.0, 0.5, -2.0, -2.0, 0.5, -2.0, -2.0, 0.5, -2.0, 0.5, 0.5, 0.5, 0.5, 0.5, -2.0, 0.5, -2.0, -2.0, 0.5, -2.0, -2.0, -2.0, -2.0, -2.0, 0.5, 0.5, 0.5, -2.0, 0.5, -2.0, 0.5, 0.5, -2.0, -2.0, -2.0, 0.5, 0.5, 0.5, -2.0, -2.0, 0.5, 0.5, -2.0, -2.0, -2.0, -2.0, 0.5, 0.5, 0.5, -2.0, 0.5, 0.5, -2.0, -2.0, -2.0, 0.5, 0.5, 0.5, 0.5, 0.5, -2.0, -2.0, -2.0, -2.0, -2.0, -2.0, 0.5, 0.5, -2.0, -2.0, -2.0, 0.5, 0.5, 0.5, 0.5, 0.5, -2.0, -2.0, 0.5, 0.5, -2.0, -2.0, 0.5, 0.5, -2.0, 0.5, 0.5, -2.0, -2.0, -2.0, -2.0, -2.0, 0.5, 0.5, 0.5, 0.5, 0.5, 0.5, 0.5, 0.5, -2.0, -2.0, -2.0, -2.0, -2.0, -2.0, -2.0, -2.0, -2.0, 0.5, 0.5, 0.5, 0.5, -2.0, 0.5, -2.0, -2.0, 0.5, 0.5, 0.5, -2.0, -2.0, 0.5, 0.5, -2.0, -2.0, -2.0, 0.5, 0.5, -2.0, -2.0, -2.0, 0.5, 0.5, 0.5, 0.5, -2.0, 0.5, -2.0, -2.0, -2.0, -2.0, 0.5, 0.5, 0.5, -2.0, -2.0, 0.5, 0.5, -2.0, -2.0, -2.0, -2.0, 0.5, 0.5, 0.5, 0.5, -2.0, 0.5, 0.5, -2.0, -2.0, -2.0, 0.5, -2.0, -2.0, 0.5, 0.5, -2.0, -2.0, -2.0, 0.5, 0.5, 0.5, -2.0, -2.0, 0.5, 0.5, -2.0, -2.0, -2.0, -2.0], "feature": [9, 17, 12, -2, 7, 14, 10, 1, -2, 15, -2, 22, 0, -2, 11, -2, 13, -2, -2, 5, -2, -2, 11, -2, 0, 16, -2, 4, 8, -2, -2, -2, 8, -2, -2, 13, -2, 5, 22, -2, 15, -2, -2, -2, 15, 16, -2, 4, 22, -2, -2, -2, 8, -2, 5, 0, -2, 4, -2, 2, -2, -2, -2, 16, 0, -2, 4, 6, -2, 2, -2, 7, -2, -2, 12, -2, 10, -2, -2, 2, 22, 18, -2, 0, -2, 1, 19, -2, -2, 15, -2, -2, 18, 15, -2, 5, -2, 7, -2, 0, -2, -2, 20, 1, 7, -2, -2, 14, -2, -2, -2, 20, 4, 22, 8, 13, -2, 21, 14, -2, -2, -2, -2, 8, -2, 0, 7, -2, -2, -2, 5, 18, 6, 8, 22, 21, 0, -2, -2, -2, -2, -2, 11, 0, -2, -2, -2, -2, 10, 1, -2, 8, -2, 21, 18, -2, -2, -2, 8, -2, 15, 12, -2, -2, -2, 7, 12, -2, -2, -2, 12, 19, 16, 7, -2, 6, -2, 3, -2, -2, 20, 21, -2, 13, -2, 7, 4, -2, 6, 0, -2, -2, -2, -2, 11, 6, -2, 22, -2, -2, 2, -2, -2, 6, -2, 11, -2, 8, -2, -2, 2, 17, 4, 16, -2, 10, 22, 21, -2, 13, -2, 3, 20, 5, -2, -2, -2, -2, 1, -2, 5, 18, -2, -2, -2, 7, -2, 14, 13, -2, -2, -2, 11, 18, 13, -2, 22, -2, 21, -2, -2, 7, -2, -2, 16, -2, 0, 21, 20, 5, 1, -2, 7, -2, -2, 10, -2, -2, -2, -2, -2, 13, 10, 22, -2, 4, -2, 14, 15, -2, -2, -2, 8, 16, 5, -2, -2, 0, 11, -2, -2, -2, -2, 19, 11, 15, -2, 5, 8, -2, -2, -2, 4, 1, 7, 21, 22, -2, -2, -2, -2, -2, -2, 11, 8, -2, -2, -2, 8, 16, 22, 13, 0, -2, -2, 15, 14, -2, -2, 21, 4, -2, 17, 6, -2, -2, -2, -2, -2, 21, 10, 11, 7, 22, 14, 6, 1, -2, -2, -2, -2, -2, -2, -2, -2, -2, 10, 11, 4, 20, -2, 14, -2, -2, 5, 0, 22, -2, -2, 1, 17, -2, -2, -2, 18, 0, -2, -2, -2, 17, 21, 7, 0, -2, 22, -2, -2, -2, -2, 0, 5, 6, -2, -2, 22, 20, -2, -2, -2, -2, 7, 1, 17, 20, -2, 4, 15, -2, -2, -2, 15, -2, -2, 15, 16, -2, -2, -2, 17, 13, 18, -2, -2, 0, 16, -2, -2, -2, -2], "classes": [0, 1], "value": [[4016.0, 3984.0], [2849.0, 475.0], [2286.0, 86.0], [1641.0, 0.0], [645.0, 86.0], [622.0, 27.0], [598.0, 17.0], [473.0, 4.0], [289.0, 0.0], [184.0, 4.0], [134.0, 0.0], [50.0, 4.0], [45.0, 1.0], [35.0, 0.0], [10.0, 1.0], [9.0, 0.0], [1.0, 1.0], [1.0, 0.0], [0.0, 1.0], [5.0, 3.0], [5.0, 0.0], [0.0, 3.0], [125.0, 13.0], [102.0, 0.0], [23.0, 13.0], [22.0, 5.0], [20.0, 0.0], [2.0, 5.0], [2.0, 3.0], [0.0, 3.0], [2.0, 0.0], [0.0, 2.0], [1.0, 8.0], [0.0, 8.0], [1.0, 0.0], [24.0, 10.0], [16.0, 0.0], [8.0, 10.0], [8.0, 2.0], [5.0, 0.0], [3.0, 2.0], [3.0, 0.0], [0.0, 2.0], [0.0, 8.0], [23.0, 59.0], [16.0, 4.0], [10.0, 0.0], [6.0, 4.0], [6.0, 2.0], [6.0, 0.0], [0.0, 2.0], [0.0, 2.0], [7.0, 55.0], [0.0, 46.0], [7.0, 9.0], [7.0, 3.0], [6.0, 0.0], [1.0, 3.0], [0.0, 1.0], [1.0, 2.0], [1.0, 0.0], [0.0, 2.0], [0.0, 6.0], [563.0, 389.0], [387.0, 11.0], [291.0, 0.0], [96.0, 11.0], [75.0, 2.0], [68.0, 0.0], [7.0, 2.0], [4.0, 0.0], [3.0, 2.0], [3.0, 0.0], [0.0, 2.0], [21.0, 9.0], [14.0, 0.0], [7.0, 9.0], [7.0, 0.0], [0.0, 9.0], [176.0, 378.0], [139.0, 21.0], [114.0, 3.0], [95.0, 0.0], [19.0, 3.0], [13.0, 0.0], [6.0, 3.0], [5.0, 1.0], [5.0, 0.0], [0.0, 1.0], [1.0, 2.0], [0.0, 2.0], [1.0, 0.0], [25.0, 18.0], [18.0, 6.0], [10.0, 0.0], [8.0, 6.0], [7.0, 0.0], [1.0, 6.0], [0.0, 5.0], [1.0, 1.0], [0.0, 1.0], [1.0, 0.0], [7.0, 12.0], [7.0, 7.0], [5.0, 1.0], [5.0, 0.0], [0.0, 1.0], [2.0, 6.0], [2.0, 0.0], [0.0, 6.0], [0.0, 5.0], [37.0, 357.0], [34.0, 162.0], [22.0, 24.0], [20.0, 2.0], [5.0, 2.0], [4.0, 0.0], [1.0, 2.0], [1.0, 1.0], [1.0, 0.0], [0.0, 1.0], [0.0, 1.0], [15.0, 0.0], [2.0, 22.0], [0.0, 18.0], [2.0, 4.0], [2.0, 1.0], [2.0, 0.0], [0.0, 1.0], [0.0, 3.0], [12.0, 138.0], [8.0, 48.0], [8.0, 33.0], [6.0, 9.0], [2.0, 9.0], [2.0, 5.0], [2.0, 2.0], [2.0, 0.0], [0.0, 2.0], [0.0, 3.0], [0.0, 4.0], [4.0, 0.0], [2.0, 24.0], [2.0, 4.0], [2.0, 0.0], [0.0, 4.0], [0.0, 20.0], [0.0, 15.0], [4.0, 90.0], [3.0, 42.0], [0.0, 21.0], [3.0, 21.0], [0.0, 17.0], [3.0, 4.0], [3.0, 1.0], [0.0, 1.0], [3.0, 0.0], [0.0, 3.0], [1.0, 48.0], [0.0, 43.0], [1.0, 5.0], [1.0, 2.0], [1.0, 0.0], [0.0, 2.0], [0.0, 3.0], [3.0, 195.0], [3.0, 67.0], [3.0, 0.0], [0.0, 67.0], [0.0, 128.0], [1167.0, 3509.0], [815.0, 12.0], [775.0, 8.0], [509.0, 1.0], [467.0, 0.0], [42.0, 1.0], [32.0, 0.0], [10.0, 1.0], [10.0, 0.0], [0.0, 1.0], [266.0, 7.0], [244.0, 2.0], [195.0, 0.0], [49.0, 2.0], [25.0, 0.0], [24.0, 2.0], [24.0, 1.0], [17.0, 0.0], [7.0, 1.0], [5.0, 1.0], [5.0, 0.0], [0.0, 1.0], [2.0, 0.0], [0.0, 1.0], [22.0, 5.0], [13.0, 1.0], [12.0, 0.0], [1.0, 1.0], [1.0, 0.0], [0.0, 1.0], [9.0, 4.0], [9.0, 0.0], [0.0, 4.0], [40.0, 4.0], [34.0, 0.0], [6.0, 4.0], [4.0, 0.0], [2.0, 4.0], [0.0, 4.0], [2.0, 0.0], [352.0, 3497.0], [250.0, 193.0], [206.0, 29.0], [138.0, 8.0], [105.0, 0.0], [33.0, 8.0], [23.0, 3.0], [20.0, 1.0], [10.0, 0.0], [10.0, 1.0], [1.0, 0.0], [9.0, 1.0], [8.0, 1.0], [4.0, 1.0], [4.0, 0.0], [0.0, 1.0], [4.0, 0.0], [1.0, 0.0], [3.0, 2.0], [2.0, 0.0], [1.0, 2.0], [1.0, 1.0], [1.0, 0.0], [0.0, 1.0], [0.0, 1.0], [10.0, 5.0], [9.0, 0.0], [1.0, 5.0], [1.0, 2.0], [1.0, 0.0], [0.0, 2.0], [0.0, 3.0], [68.0, 21.0], [56.0, 7.0], [50.0, 5.0], [33.0, 0.0], [17.0, 5.0], [14.0, 0.0], [3.0, 5.0], [3.0, 0.0], [0.0, 5.0], [6.0, 2.0], [6.0, 0.0], [0.0, 2.0], [12.0, 14.0], [8.0, 0.0], [4.0, 14.0], [4.0, 8.0], [4.0, 4.0], [4.0, 2.0], [3.0, 1.0], [2.0, 0.0], [1.0, 1.0], [1.0, 0.0], [0.0, 1.0], [1.0, 1.0], [1.0, 0.0], [0.0, 1.0], [0.0, 2.0], [0.0, 4.0], [0.0, 6.0], [44.0, 164.0], [27.0, 14.0], [23.0, 4.0], [15.0, 0.0], [8.0, 4.0], [5.0, 0.0], [3.0, 4.0], [3.0, 2.0], [3.0, 0.0], [0.0, 2.0], [0.0, 2.0], [4.0, 10.0], [2.0, 10.0], [1.0, 1.0], [1.0, 0.0], [0.0, 1.0], [1.0, 9.0], [1.0, 2.0], [1.0, 0.0], [0.0, 2.0], [0.0, 7.0], [2.0, 0.0], [17.0, 150.0], [16.0, 90.0], [15.0, 19.0], [12.0, 0.0], [3.0, 19.0], [3.0, 6.0], [0.0, 6.0], [3.0, 0.0], [0.0, 13.0], [1.0, 71.0], [1.0, 15.0], [1.0, 6.0], [1.0, 2.0], [1.0, 1.0], [0.0, 1.0], [1.0, 0.0], [0.0, 1.0], [0.0, 4.0], [0.0, 9.0], [0.0, 56.0], [1.0, 60.0], [1.0, 11.0], [0.0, 11.0], [1.0, 0.0], [0.0, 49.0], [102.0, 3304.0], [13.0, 3013.0], [11.0, 134.0], [11.0, 30.0], [8.0, 3.0], [8.0, 0.0], [0.0, 3.0], [3.0, 27.0], [2.0, 1.0], [2.0, 0.0], [0.0, 1.0], [1.0, 26.0], [1.0, 12.0], [0.0, 5.0], [1.0, 7.0], [1.0, 1.0], [1.0, 0.0], [0.0, 1.0], [0.0, 6.0], [0.0, 14.0], [0.0, 104.0], [2.0, 2879.0], [2.0, 1573.0], [2.0, 695.0], [2.0, 124.0], [2.0, 38.0], [2.0, 3.0], [2.0, 2.0], [2.0, 1.0], [2.0, 0.0], [0.0, 1.0], [0.0, 1.0], [0.0, 1.0], [0.0, 35.0], [0.0, 86.0], [0.0, 571.0], [0.0, 878.0], [0.0, 1306.0], [89.0, 291.0], [70.0, 105.0], [51.0, 32.0], [31.0, 3.0], [29.0, 0.0], [2.0, 3.0], [2.0, 0.0], [0.0, 3.0], [20.0, 29.0], [17.0, 15.0], [16.0, 1.0], [16.0, 0.0], [0.0, 1.0], [1.0, 14.0], [1.0, 4.0], [1.0, 0.0], [0.0, 4.0], [0.0, 10.0], [3.0, 14.0], [3.0, 2.0], [0.0, 2.0], [3.0, 0.0], [0.0, 12.0], [19.0, 73.0], [14.0, 10.0], [14.0, 4.0], [14.0, 1.0], [9.0, 0.0], [5.0, 1.0], [5.0, 0.0], [0.0, 1.0], [0.0, 3.0], [0.0, 6.0], [5.0, 63.0], [5.0, 16.0], [3.0, 1.0], [3.0, 0.0], [0.0, 1.0], [2.0, 15.0], [2.0, 2.0], [2.0, 0.0], [0.0, 2.0], [0.0, 13.0], [0.0, 47.0], [19.0, 186.0], [14.0, 73.0], [9.0, 32.0], [7.0, 7.0], [6.0, 0.0], [1.0, 7.0], [1.0, 2.0], [1.0, 0.0], [0.0, 2.0], [0.0, 5.0], [2.0, 25.0], [2.0, 0.0], [0.0, 25.0], [5.0, 41.0], [5.0, 5.0], [5.0, 0.0], [0.0, 5.0], [0.0, 36.0], [5.0, 113.0], [5.0, 22.0], [4.0, 5.0], [4.0, 0.0], [0.0, 5.0], [1.0, 17.0], [1.0, 7.0], [1.0, 0.0], [0.0, 7.0], [0.0, 10.0], [0.0, 91.0]]}, {"children_left": [1, 2, 3, 4, 5, -1, 7, -1, 9, -1, 11, -1, 13, -1, -1, 16, -1, 18, 19, 20, -1, 22, -1, -1, 25, -1, -1, -1, 29, 30, -1, 32, -1, 34, 35, -1, 37, 38, -1, -1, -1, -1, 43, 44, 45, 46, -1, 48, -1, 50, -1, -1, 53, -1, -1, 56, -1, -1, 59, 60, 61, 62, -1, 64, -1, 66, 67, -1, -1, -1, -1, 72, 73, -1, -1, -1, 77, 78, 79, -1, -1, -1, -1, 84, 85, 86, 87, 88, -1, 90, 91, 92, -1, 94, -1, -1, -1, -1, 99, -1, 101, -1, -1, 104, -1, -1, 107, -1, 109, 110, 111, -1, 113, -1, -1, 116, 117, 118, 119, -1, -1, 122, 123, -1, 125, 126, -1, -1, -1, -1, -1, -1, 133, 134, 135, -1, -1, -1, -1, 140, 141, 142, 143, 144, 145, -1, 147, 148, -1, 150, -1, -1, -1, 154, 155, -1, 157, -1, -1, 160, -1, -1, -1, 164, 165, -1, 167, -1, 169, 170, 171, -1, 173, -1, -1, -1, 177, 178, -1, -1, -1, -1, 183, 184, 185, 186, -1, -1, 189, 190, -1, -1, -1, 194, 195, -1, -1, -1, -1, 200, 201, 202, 203, 204, 205, -1, 207, 208, -1, -1, 211, 212, 213, -1, -1, -1, -1, 218, -1, -1, 221, -1, 223, -1, -1, 226, 227, 228, 229, -1, -1, -1, -1, -1, 235, 236, 237, -1, -1, -1, 241, 242, 243, 244, -1, -1, -1, -1, -1, 250, 251, 252, 253, 254, -1, -1, -1, -1, 259, 260, 261, -1, -1, -1, 265, 266, 267, 268, 269, 270, 271, -1, -1, -1, -1, -1, -1, -1, -1, -1, 281, 282, 283, -1, 285, 286, -1, 288, 289, -1, 291, -1, 293, -1, -1, -1, 297, -1, 299, -1, 301, -1, 303, -1, -1, 306, 307, -1, 309, -1, 311, -1, -1, 314, 315, -1, 317, -1, 319, -1, -1, 322, -1, 324, 325, -1, -1, -1, 329, 330, 331, -1, 333, -1, 335, 336, 337, -1, 339, -1, 341, -1, 343, -1, -1, 346, -1, -1, 349, -1, -1, 352, 353, 354, -1, 356, 357, -1, 359, -1, 361, -1, -1, 364, -1, -1, 367, 368, -1, -1, 371, 372, -1, -1, -1, 376, 377, -1, -1, 380, -1, -1, 383, 384, 385, 386, -1, 388, -1, 390, -1, -1, 393, -1, 395, 396, -1, 398, 399, -1, -1, 402, -1, 404, -1, -1, 407, 408, 409, -1, -1, 412, -1, -1, -1, 416, 417, -1, 419, 420, -1, 422, -1, 424, -1, 426, -1, -1, 429, -1, -1, 432, 433, -1, -1, -1, 437, 438, 439, -1, 441, 442, -1, -1, 445, 446, -1, -1, 449, -1, 451, -1, -1, -1, 455, 456, -1, 458, 459, -1, -1, -1, 463, 464, 465, 466, 467, -1, 469, 470, -1, -1, -1, -1, -1, -1, -1], "children_right": [280, 83, 28, 15, 6, -1, 8, -1, 10, -1, 12, -1, 14, -1, -1, 17, -1, 27, 24, 21, -1, 23, -1, -1, 26, -1, -1, -1, 42, 31, -1, 33, -1, 41, 36, -1, 40, 39, -1, -1, -1, -1, 58, 55, 52, 47, -1, 49, -1, 51, -1, -1, 54, -1, -1, 57, -1, -1, 76, 71, 70, 63, -1, 65, -1, 69, 68, -1, -1, -1, -1, 75, 74, -1, -1, -1, 82, 81, 80, -1, -1, -1, -1, 139, 106, 103, 98, 89, -1, 97, 96, 93, -1, 95, -1, -1, -1, -1, 100, -1, 102, -1, -1, 105, -1, -1, 108, -1, 132, 115, 112, -1, 114, -1, -1, 131, 130, 121, 120, -1, -1, 129, 124, -1, 128, 127, -1, -1, -1, -1, -1, -1, 138, 137, 136, -1, -1, -1, -1, 199, 182, 163, 162, 153, 146, -1, 152, 149, -1, 151, -1, -1, -1, 159, 156, -1, 158, -1, -1, 161, -1, -1, -1, 181, 166, -1, 168, -1, 176, 175, 172, -1, 174, -1, -1, -1, 180, 179, -1, -1, -1, -1, 198, 193, 188, 187, -1, -1, 192, 191, -1, -1, -1, 197, 196, -1, -1, -1, -1, 249, 234, 225, 220, 217, 206, -1, 210, 209, -1, -1, 216, 215, 214, -1, -1, -1, -1, 219, -1, -1, 222, -1, 224, -1, -1, 233, 232, 231, 230, -1, -1, -1, -1, -1, 240, 239, 238, -1, -1, -1, 248, 247, 246, 245, -1, -1, -1, -1, -1, 279, 258, 257, 256, 255, -1, -1, -1, -1, 264, 263, 262, -1, -1, -1, 278, 277, 276, 275, 274, 273, 272, -1, -1, -1, -1, -1, -1, -1, -1, -1, 328, 305, 284, -1, 296, 287, -1, 295, 290, -1, 292, -1, 294, -1, -1, -1, 298, -1, 300, -1, 302, -1, 304, -1, -1, 313, 308, -1, 310, -1, 312, -1, -1, 321, 316, -1, 318, -1, 320, -1, -1, 323, -1, 327, 326, -1, -1, -1, 382, 351, 332, -1, 334, -1, 348, 345, 338, -1, 340, -1, 342, -1, 344, -1, -1, 347, -1, -1, 350, -1, -1, 375, 366, 355, -1, 363, 358, -1, 360, -1, 362, -1, -1, 365, -1, -1, 370, 369, -1, -1, 374, 373, -1, -1, -1, 379, 378, -1, -1, 381, -1, -1, 436, 415, 392, 387, -1, 389, -1, 391, -1, -1, 394, -1, 406, 397, -1, 401, 400, -1, -1, 403, -1, 405, -1, -1, 414, 411, 410, -1, -1, 413, -1, -1, -1, 431, 418, -1, 428, 421, -1, 423, -1, 425, -1, 427, -1, -1, 430, -1, -1, 435, 434, -1, -1, -1, 454, 453, 440, -1, 444, 443, -1, -1, 448, 447, -1, -1, 450, -1, 452, -1, -1, -1, 462, 457, -1, 461, 460, -1, -1, -1, 476, 475, 474, 473, 468, -1, 472, 471, -1, -1, -1, -1, -1, -1, -1], "threshold": [0.5, 0.5, 0.5, 0.5, 0.5, -2.0, 0.5, -2.0, 0.5, -2.0, 0.5, -2.0, 0.5, -2.0, -2.0, 0.5, -2.0, 0.5, 0.5, 0.5, -2.0, 0.5, -2.0, -2.0, 0.5, -2.0, -2.0, -2.0, 0.5, 0.5, -2.0, 0.5, -2.0, 0.5, 0.5, -2.0, 0.5, 0.5, -2.0, -2.0, -2.0, -2.0, 0.5, 0.5, 0.5, 0.5, -2.0, 0.5, -2.0, 0.5, -2.0, -2.0, 0.5, -2.0, -2.0, 0.5, -2.0, -2.0, 0.5, 0.5, 0.5, 0.5, -2.0, 0.5, -2.0, 0.5, 0.5, -2.0, -2.0, -2.0, -2.0, 0.5, 0.5, -2.0, -2.0, -2.0, 0.5, 0.5, 0.5, -2.0, -2.0, -2.0, -2.0, 0.5, 0.5, 0.5, 0.5, 0.5, -2.0, 0.5, 0.5, 0.5, -2.0, 0.5, -2.0, -2.0, -2.0, -2.0, 0.5, -2.0, 0.5, -2.0, -2.0, 0.5, -2.0, -2.0, 0.5, -2.0, 0.5, 0.5, 0.5, -2.0, 0.5, -2.0, -2.0, 0.5, 0.5, 0.5, 0.5, -2.0, -2.0, 0.5, 0.5, -2.0, 0.5, 0.5, -2.0, -2.0, -2.0, -2.0, -2.0, -2.0, 0.5, 0.5, 0.5, -2.0, -2.0, -2.0, -2.0, 0.5, 0.5, 0.5, 0.5, 0.5, 0.5, -2.0, 0.5, 0.5, -2.0, 0.5, -2.0, -2.0, -2.0, 0.5, 0.5, -2.0, 0.5, -2.0, -2.0, 0.5, -2.0, -2.0, -2.0, 0.5, 0.5, -2.0, 0.5, -2.0, 0.5, 0.5, 0.5, -2.0, 0.5, -2.0, -2.0, -2.0, 0.5, 0.5, -2.0, -2.0, -2.0, -2.0, 0.5, 0.5, 0.5, 0.5, -2.0, -2.0, 0.5, 0.5, -2.0, -2.0, -2.0, 0.5, 0.5, -2.0, -2.0, -2.0, -2.0, 0.5, 0.5, 0.5, 0.5, 0.5, 0.5, -2.0, 0.5, 0.5, -2.0, -2.0, 0.5, 0.5, 0.5, -2.0, -2.0, -2.0, -2.0, 0.5, -2.0, -2.0, 0.5, -2.0, 0.5, -2.0, -2.0, 0.5, 0.5, 0.5, 0.5, -2.0, -2.0, -2.0, -2.0, -2.0, 0.5, 0.5, 0.5, -2.0, -2.0, -2.0, 0.5, 0.5, 0.5, 0.5, -2.0, -2.0, -2.0, -2.0, -2.0, 0.5, 0.5, 0.5, 0.5, 0.5, -2.0, -2.0, -2.0, -2.0, 0.5, 0.5, 0.5, -2.0, -2.0, -2.0, 0.5, 0.5, 0.5, 0.5, 0.5, 0.5, 0.5, -2.0, -2.0, -2.0, -2.0, -2.0, -2.0, -2.0, -2.0, -2.0, 0.5, 0.5, 0.5, -2.0, 0.5, 0.5, -2.0, 0.5, 0.5, -2.0, 0.5, -2.0, 0.5, -2.0, -2.0, -2.0, 0.5, -2.0, 0.5, -2.0, 0.5, -2.0, 0.5, -2.0, -2.0, 0.5, 0.5, -2.0, 0.5, -2.0, 0.5, -2.0, -2.0, 0.5, 0.5, -2.0, 0.5, -2.0, 0.5, -2.0, -2.0, 0.5, -2.0, 0.5, 0.5, -2.0, -2.0, -2.0, 0.5, 0.5, 0.5, -2.0, 0.5, -2.0, 0.5, 0.5, 0.5, -2.0, 0.5, -2.0, 0.5, -2.0, 0.5, -2.0, -2.0, 0.5, -2.0, -2.0, 0.5, -2.0, -2.0, 0.5, 0.5, 0.5, -2.0, 0.5, 0.5, -2.0, 0.5, -2.0, 0.5, -2.0, -2.0, 0.5, -2.0, -2.0, 0.5, 0.5, -2.0, -2.0, 0.5, 0.5, -2.0, -2.0, -2.0, 0.5, 0.5, -2.0, -2.0, 0.5, -2.0, -2.0, 0.5, 0.5, 0.5, 0.5, -2.0, 0.5, -2.0, 0.5, -2.0, -2.0, 0.5, -2.0, 0.5, 0.5, -2.0, 0.5, 0.5, -2.0, -2.0, 0.5, -2.0, 0.5, -2.0, -2.0, 0.5, 0.5, 0.5, -2.0, -2.0, 0.5, -2.0, -2.0, -2.0, 0.5, 0.5, -2.0, 0.5, 0.5, -2.0, 0.5, -2.0, 0.5, -2.0, 0.5, -2.0, -2.0, 0.5, -2.0, -2.0, 0.5, 0.5, -2.0, -2.0, -2.0, 0.5, 0.5, 0.5, -2.0, 0.5, 0.5, -2.0, -2.0, 0.5, 0.5, -2.0, -2.0, 0.5, -2.0, 0.5, -2.0, -2.0, -2.0, 0.5, 0.5, -2.0, 0.5, 0.5, -2.0, -2.0, -2.0, 0.5, 0.5, 0.5, 0.5, 0.5, -2.0, 0.5, 0.5, -2.0, -2.0, -2.0, -2.0, -2.0, -2.0, -2.0], "feature": [8, 13, 2, 22, 16, -2, 11, -2, 9, -2, 12, -2, 4, -2, -2, 16, -2, 19, 4, 0, -2, 6, -2, -2, 12, -2, -2, -2, 15, 16, -2, 17, -2, 18, 5, -2, 1, 22, -2, -2, -2, -2, 16, 20, 17, 1, -2, 22, -2, 21, -2, -2, 11, -2, -2, 17, -2, -2, 6, 10, 20, 12, -2, 18, -2, 14, 17, -2, -2, -2, -2, 11, 12, -2, -2, -2, 9, 4, 5, -2, -2, -2, -2, 16, 2, 19, 22, 21, -2, 18, 9, 12, -2, 4, -2, -2, -2, -2, 1, -2, 20, -2, -2, 20, -2, -2, 12, -2, 6, 15, 0, -2, 7, -2, -2, 3, 1, 4, 7, -2, -2, 20, 7, -2, 18, 14, -2, -2, -2, -2, -2, -2, 17, 18, 9, -2, -2, -2, -2, 15, 9, 22, 14, 6, 12, -2, 10, 1, -2, 0, -2, -2, -2, 18, 2, -2, 4, -2, -2, 20, -2, -2, -2, 7, 12, -2, 0, -2, 10, 14, 6, -2, 18, -2, -2, -2, 5, 20, -2, -2, -2, -2, 4, 22, 5, 6, -2, -2, 7, 2, -2, -2, -2, 20, 17, -2, -2, -2, -2, 17, 5, 11, 18, 10, 12, -2, 4, 21, -2, -2, 20, 14, 2, -2, -2, -2, -2, 12, -2, -2, 12, -2, 2, -2, -2, 22, 4, 1, 3, -2, -2, -2, -2, -2, 12, 21, 19, -2, -2, -2, 11, 1, 2, 10, -2, -2, -2, -2, -2, 7, 2, 5, 0, 4, -2, -2, -2, -2, 12, 19, 9, -2, -2, -2, 20, 19, 22, 18, 4, 5, 0, -2, -2, -2, -2, -2, -2, -2, -2, -2, 2, 7, 15, -2, 11, 22, -2, 14, 10, -2, 16, -2, 9, -2, -2, -2, 18, -2, 22, -2, 10, -2, 0, -2, -2, 22, 4, -2, 21, -2, 18, -2, -2, 13, 10, -2, 15, -2, 20, -2, -2, 15, -2, 17, 21, -2, -2, -2, 4, 17, 12, -2, 10, -2, 3, 7, 0, -2, 5, -2, 11, -2, 13, -2, -2, 20, -2, -2, 13, -2, -2, 20, 10, 22, -2, 5, 9, -2, 21, -2, 15, -2, -2, 15, -2, -2, 22, 7, -2, -2, 6, 12, -2, -2, -2, 11, 7, -2, -2, 13, -2, -2, 22, 17, 15, 10, -2, 11, -2, 7, -2, -2, 9, -2, 7, 0, -2, 5, 13, -2, -2, 18, -2, 14, -2, -2, 11, 13, 1, -2, -2, 10, -2, -2, -2, 7, 13, -2, 20, 5, -2, 15, -2, 21, -2, 12, -2, -2, 16, -2, -2, 9, 6, -2, -2, -2, 17, 7, 16, -2, 1, 13, -2, -2, 11, 3, -2, -2, 0, -2, 9, -2, -2, -2, 15, 16, -2, 11, 9, -2, -2, -2, 9, 7, 3, 18, 0, -2, 5, 1, -2, -2, -2, -2, -2, -2, -2], "classes": [0, 1], "value": [[4011.0, 3989.0], [823.0, 3669.0], [473.0, 254.0], [315.0, 14.0], [259.0, 1.0], [188.0, 0.0], [71.0, 1.0], [47.0, 0.0], [24.0, 1.0], [19.0, 0.0], [5.0, 1.0], [3.0, 0.0], [2.0, 1.0], [2.0, 0.0], [0.0, 1.0], [56.0, 13.0], [43.0, 0.0], [13.0, 13.0], [13.0, 8.0], [12.0, 2.0], [6.0, 0.0], [6.0, 2.0], [6.0, 0.0], [0.0, 2.0], [1.0, 6.0], [1.0, 0.0], [0.0, 6.0], [0.0, 5.0], [158.0, 240.0], [109.0, 15.0], [74.0, 0.0], [35.0, 15.0], [28.0, 0.0], [7.0, 15.0], [7.0, 4.0], [3.0, 0.0], [4.0, 4.0], [4.0, 1.0], [4.0, 0.0], [0.0, 1.0], [0.0, 3.0], [0.0, 11.0], [49.0, 225.0], [34.0, 11.0], [30.0, 7.0], [27.0, 1.0], [22.0, 0.0], [5.0, 1.0], [3.0, 0.0], [2.0, 1.0], [2.0, 0.0], [0.0, 1.0], [3.0, 6.0], [3.0, 0.0], [0.0, 6.0], [4.0, 4.0], [4.0, 0.0], [0.0, 4.0], [15.0, 214.0], [11.0, 85.0], [10.0, 37.0], [10.0, 14.0], [9.0, 0.0], [1.0, 14.0], [0.0, 7.0], [1.0, 7.0], [1.0, 3.0], [1.0, 0.0], [0.0, 3.0], [0.0, 4.0], [0.0, 23.0], [1.0, 48.0], [1.0, 13.0], [1.0, 0.0], [0.0, 13.0], [0.0, 35.0], [4.0, 129.0], [4.0, 22.0], [4.0, 4.0], [4.0, 0.0], [0.0, 4.0], [0.0, 18.0], [0.0, 107.0], [350.0, 3415.0], [245.0, 132.0], [173.0, 4.0], [169.0, 3.0], [134.0, 1.0], [97.0, 0.0], [37.0, 1.0], [24.0, 1.0], [7.0, 1.0], [6.0, 0.0], [1.0, 1.0], [1.0, 0.0], [0.0, 1.0], [17.0, 0.0], [13.0, 0.0], [35.0, 2.0], [28.0, 0.0], [7.0, 2.0], [7.0, 0.0], [0.0, 2.0], [4.0, 1.0], [4.0, 0.0], [0.0, 1.0], [72.0, 128.0], [57.0, 0.0], [15.0, 128.0], [14.0, 50.0], [8.0, 1.0], [6.0, 0.0], [2.0, 1.0], [2.0, 0.0], [0.0, 1.0], [6.0, 49.0], [6.0, 42.0], [6.0, 14.0], [3.0, 5.0], [3.0, 0.0], [0.0, 5.0], [3.0, 9.0], [3.0, 3.0], [1.0, 0.0], [2.0, 3.0], [2.0, 1.0], [2.0, 0.0], [0.0, 1.0], [0.0, 2.0], [0.0, 6.0], [0.0, 28.0], [0.0, 7.0], [1.0, 78.0], [1.0, 13.0], [1.0, 7.0], [1.0, 0.0], [0.0, 7.0], [0.0, 6.0], [0.0, 65.0], [105.0, 3283.0], [65.0, 230.0], [58.0, 33.0], [44.0, 6.0], [44.0, 4.0], [34.0, 1.0], [31.0, 0.0], [3.0, 1.0], [2.0, 1.0], [1.0, 0.0], [1.0, 1.0], [1.0, 0.0], [0.0, 1.0], [1.0, 0.0], [10.0, 3.0], [9.0, 1.0], [8.0, 0.0], [1.0, 1.0], [1.0, 0.0], [0.0, 1.0], [1.0, 2.0], [1.0, 0.0], [0.0, 2.0], [0.0, 2.0], [14.0, 27.0], [14.0, 13.0], [4.0, 0.0], [10.0, 13.0], [0.0, 1.0], [10.0, 12.0], [6.0, 4.0], [6.0, 2.0], [5.0, 0.0], [1.0, 2.0], [1.0, 0.0], [0.0, 2.0], [0.0, 2.0], [4.0, 8.0], [4.0, 4.0], [4.0, 0.0], [0.0, 4.0], [0.0, 4.0], [0.0, 14.0], [7.0, 197.0], [7.0, 33.0], [6.0, 5.0], [5.0, 1.0], [5.0, 0.0], [0.0, 1.0], [1.0, 4.0], [1.0, 3.0], [1.0, 0.0], [0.0, 3.0], [0.0, 1.0], [1.0, 28.0], [1.0, 10.0], [1.0, 0.0], [0.0, 10.0], [0.0, 18.0], [0.0, 164.0], [40.0, 3053.0], [35.0, 630.0], [27.0, 253.0], [26.0, 39.0], [24.0, 22.0], [19.0, 11.0], [16.0, 0.0], [3.0, 11.0], [2.0, 1.0], [0.0, 1.0], [2.0, 0.0], [1.0, 10.0], [1.0, 5.0], [1.0, 2.0], [1.0, 0.0], [0.0, 2.0], [0.0, 3.0], [0.0, 5.0], [5.0, 11.0], [5.0, 0.0], [0.0, 11.0], [2.0, 17.0], [1.0, 0.0], [1.0, 17.0], [1.0, 0.0], [0.0, 17.0], [1.0, 214.0], [1.0, 51.0], [1.0, 7.0], [1.0, 3.0], [1.0, 0.0], [0.0, 3.0], [0.0, 4.0], [0.0, 44.0], [0.0, 163.0], [8.0, 377.0], [7.0, 5.0], [7.0, 2.0], [7.0, 0.0], [0.0, 2.0], [0.0, 3.0], [1.0, 372.0], [1.0, 64.0], [1.0, 28.0], [1.0, 2.0], [1.0, 0.0], [0.0, 2.0], [0.0, 26.0], [0.0, 36.0], [0.0, 308.0], [5.0, 2423.0], [5.0, 917.0], [2.0, 50.0], [2.0, 20.0], [2.0, 4.0], [2.0, 0.0], [0.0, 4.0], [0.0, 16.0], [0.0, 30.0], [3.0, 867.0], [1.0, 5.0], [1.0, 4.0], [1.0, 0.0], [0.0, 4.0], [0.0, 1.0], [2.0, 862.0], [2.0, 458.0], [2.0, 333.0], [2.0, 48.0], [2.0, 24.0], [2.0, 9.0], [2.0, 3.0], [2.0, 0.0], [0.0, 3.0], [0.0, 6.0], [0.0, 15.0], [0.0, 24.0], [0.0, 285.0], [0.0, 125.0], [0.0, 404.0], [0.0, 1506.0], [3188.0, 320.0], [2258.0, 14.0], [2162.0, 3.0], [1540.0, 0.0], [622.0, 3.0], [419.0, 1.0], [352.0, 0.0], [67.0, 1.0], [57.0, 1.0], [44.0, 0.0], [13.0, 1.0], [12.0, 0.0], [1.0, 1.0], [1.0, 0.0], [0.0, 1.0], [10.0, 0.0], [203.0, 2.0], [163.0, 0.0], [40.0, 2.0], [30.0, 0.0], [10.0, 2.0], [7.0, 0.0], [3.0, 2.0], [3.0, 0.0], [0.0, 2.0], [96.0, 11.0], [78.0, 1.0], [58.0, 0.0], [20.0, 1.0], [18.0, 0.0], [2.0, 1.0], [2.0, 0.0], [0.0, 1.0], [18.0, 10.0], [9.0, 1.0], [7.0, 0.0], [2.0, 1.0], [1.0, 0.0], [1.0, 1.0], [1.0, 0.0], [0.0, 1.0], [9.0, 9.0], [6.0, 0.0], [3.0, 9.0], [3.0, 1.0], [0.0, 1.0], [3.0, 0.0], [0.0, 8.0], [930.0, 306.0], [654.0, 59.0], [506.0, 10.0], [359.0, 0.0], [147.0, 10.0], [112.0, 0.0], [35.0, 10.0], [33.0, 8.0], [31.0, 2.0], [17.0, 0.0], [14.0, 2.0], [8.0, 0.0], [6.0, 2.0], [2.0, 0.0], [4.0, 2.0], [4.0, 0.0], [0.0, 2.0], [2.0, 6.0], [0.0, 6.0], [2.0, 0.0], [2.0, 2.0], [2.0, 0.0], [0.0, 2.0], [148.0, 49.0], [130.0, 24.0], [103.0, 4.0], [80.0, 0.0], [23.0, 4.0], [20.0, 1.0], [9.0, 0.0], [11.0, 1.0], [7.0, 0.0], [4.0, 1.0], [4.0, 0.0], [0.0, 1.0], [3.0, 3.0], [3.0, 0.0], [0.0, 3.0], [27.0, 20.0], [22.0, 1.0], [22.0, 0.0], [0.0, 1.0], [5.0, 19.0], [5.0, 12.0], [5.0, 0.0], [0.0, 12.0], [0.0, 7.0], [18.0, 25.0], [14.0, 3.0], [14.0, 0.0], [0.0, 3.0], [4.0, 22.0], [4.0, 0.0], [0.0, 22.0], [276.0, 247.0], [230.0, 39.0], [189.0, 12.0], [126.0, 2.0], [95.0, 0.0], [31.0, 2.0], [23.0, 0.0], [8.0, 2.0], [8.0, 0.0], [0.0, 2.0], [63.0, 10.0], [32.0, 0.0], [31.0, 10.0], [28.0, 3.0], [20.0, 0.0], [8.0, 3.0], [1.0, 2.0], [1.0, 0.0], [0.0, 2.0], [7.0, 1.0], [3.0, 0.0], [4.0, 1.0], [4.0, 0.0], [0.0, 1.0], [3.0, 7.0], [3.0, 5.0], [2.0, 2.0], [2.0, 0.0], [0.0, 2.0], [1.0, 3.0], [1.0, 0.0], [0.0, 3.0], [0.0, 2.0], [41.0, 27.0], [40.0, 7.0], [17.0, 0.0], [23.0, 7.0], [20.0, 3.0], [14.0, 0.0], [6.0, 3.0], [3.0, 0.0], [3.0, 3.0], [0.0, 2.0], [3.0, 1.0], [3.0, 0.0], [0.0, 1.0], [3.0, 4.0], [3.0, 0.0], [0.0, 4.0], [1.0, 20.0], [1.0, 6.0], [1.0, 0.0], [0.0, 6.0], [0.0, 14.0], [46.0, 208.0], [38.0, 41.0], [38.0, 12.0], [25.0, 0.0], [13.0, 12.0], [2.0, 4.0], [2.0, 0.0], [0.0, 4.0], [11.0, 8.0], [10.0, 2.0], [10.0, 0.0], [0.0, 2.0], [1.0, 6.0], [0.0, 1.0], [1.0, 5.0], [1.0, 0.0], [0.0, 5.0], [0.0, 29.0], [8.0, 167.0], [5.0, 12.0], [2.0, 0.0], [3.0, 12.0], [3.0, 1.0], [3.0, 0.0], [0.0, 1.0], [0.0, 11.0], [3.0, 155.0], [3.0, 32.0], [3.0, 11.0], [2.0, 11.0], [1.0, 11.0], [0.0, 1.0], [1.0, 10.0], [1.0, 5.0], [1.0, 0.0], [0.0, 5.0], [0.0, 5.0], [1.0, 0.0], [1.0, 0.0], [0.0, 21.0], [0.0, 123.0]]}, {"children_left": [1, 2, 3, 4, -1, 6, -1, 8, -1, 10, 11, 12, -1, -1, -1, -1, -1, 18, 19, 20, 21, 22, -1, 24, 25, -1, 27, -1, 29, -1, 31, -1, -1, 34, 35, 36, -1, 38, -1, -1, 41, -1, -1, -1, 45, -1, 47, 48, -1, 50, -1, -1, -1, 54, 55, 56, -1, 58, 59, -1, 61, -1, -1, -1, 65, 66, -1, -1, 69, -1, -1, 72, -1, -1, 75, 76, -1, 78, -1, -1, 81, 82, -1, -1, 85, 86, 87, -1, -1, -1, -1, 92, 93, -1, 95, 96, -1, 98, -1, 100, -1, 102, -1, -1, 105, -1, 107, -1, -1, 110, 111, 112, 113, -1, 115, -1, 117, -1, -1, 120, -1, 122, -1, -1, 125, 126, 127, -1, -1, -1, -1, 132, 133, -1, -1, 136, 137, 138, 139, 140, -1, -1, -1, -1, 145, 146, -1, 148, -1, -1, -1, -1, 153, 154, 155, 156, 157, -1, 159, 160, -1, -1, 163, 164, -1, -1, -1, 168, 169, 170, -1, 172, -1, -1, 175, -1, -1, -1, 179, 180, 181, 182, -1, 184, -1, 186, -1, -1, 189, 190, -1, 192, -1, -1, -1, -1, 197, 198, 199, -1, -1, -1, 203, -1, 205, 206, -1, -1, -1, 210, 211, 212, 213, -1, 215, 216, -1, 218, 219, -1, -1, -1, 223, 224, -1, 226, -1, -1, -1, 230, -1, 232, 233, -1, -1, 236, 237, 238, 239, 240, 241, 242, -1, -1, 245, -1, -1, -1, -1, -1, -1, -1, 253, 254, 255, 256, 257, 258, -1, -1, -1, 262, 263, -1, 265, 266, 267, -1, -1, -1, -1, -1, -1, -1, 275, 276, -1, -1, -1, 280, 281, 282, 283, 284, -1, 286, -1, -1, -1, 290, 291, 292, -1, -1, -1, 296, 297, 298, -1, -1, -1, -1, 303, 304, 305, 306, -1, -1, -1, -1, -1, 312, 313, 314, 315, 316, -1, 318, -1, -1, -1, -1, 323, 324, 325, 326, -1, -1, -1, -1, -1, -1, 333, 334, 335, 336, -1, 338, -1, 340, 341, -1, 343, -1, 345, -1, -1, 348, 349, 350, -1, 352, -1, -1, -1, -1, 357, 358, -1, 360, -1, -1, 363, -1, 365, 366, -1, -1, -1, 370, -1, 372, 373, 374, -1, -1, 377, -1, -1, -1, 381, 382, 383, 384, -1, 386, -1, 388, -1, -1, 391, -1, 393, 394, -1, 396, -1, -1, 399, -1, -1, 402, 403, -1, 405, -1, 407, 408, -1, -1, -1, 412, 413, -1, -1, -1, 417, 418, -1, 420, 421, 422, -1, 424, -1, -1, -1, 428, 429, 430, 431, -1, 433, -1, -1, -1, -1, 438, 439, 440, 441, -1, -1, -1, -1, -1, 447, 448, 449, 450, 451, -1, -1, 454, 455, -1, -1, -1, 459, -1, -1, 462, 463, 464, 465, 466, -1, 468, -1, -1, -1, -1, -1, -1, -1], "children_right": [152, 17, 16, 5, -1, 7, -1, 9, -1, 15, 14, 13, -1, -1, -1, -1, -1, 91, 74, 53, 44, 23, -1, 33, 26, -1, 28, -1, 30, -1, 32, -1, -1, 43, 40, 37, -1, 39, -1, -1, 42, -1, -1, -1, 46, -1, 52, 49, -1, 51, -1, -1, -1, 71, 64, 57, -1, 63, 60, -1, 62, -1, -1, -1, 68, 67, -1, -1, 70, -1, -1, 73, -1, -1, 80, 77, -1, 79, -1, -1, 84, 83, -1, -1, 90, 89, 88, -1, -1, -1, -1, 109, 94, -1, 104, 97, -1, 99, -1, 101, -1, 103, -1, -1, 106, -1, 108, -1, -1, 131, 124, 119, 114, -1, 116, -1, 118, -1, -1, 121, -1, 123, -1, -1, 130, 129, 128, -1, -1, -1, -1, 135, 134, -1, -1, 151, 144, 143, 142, 141, -1, -1, -1, -1, 150, 147, -1, 149, -1, -1, -1, -1, 332, 209, 178, 167, 158, -1, 162, 161, -1, -1, 166, 165, -1, -1, -1, 177, 174, 171, -1, 173, -1, -1, 176, -1, -1, -1, 196, 195, 188, 183, -1, 185, -1, 187, -1, -1, 194, 191, -1, 193, -1, -1, -1, -1, 202, 201, 200, -1, -1, -1, 204, -1, 208, 207, -1, -1, -1, 279, 252, 229, 214, -1, 222, 217, -1, 221, 220, -1, -1, -1, 228, 225, -1, 227, -1, -1, -1, 231, -1, 235, 234, -1, -1, 251, 250, 249, 248, 247, 244, 243, -1, -1, 246, -1, -1, -1, -1, -1, -1, -1, 274, 273, 272, 261, 260, 259, -1, -1, -1, 271, 264, -1, 270, 269, 268, -1, -1, -1, -1, -1, -1, -1, 278, 277, -1, -1, -1, 311, 302, 289, 288, 285, -1, 287, -1, -1, -1, 295, 294, 293, -1, -1, -1, 301, 300, 299, -1, -1, -1, -1, 310, 309, 308, 307, -1, -1, -1, -1, -1, 331, 322, 321, 320, 317, -1, 319, -1, -1, -1, -1, 330, 329, 328, 327, -1, -1, -1, -1, -1, -1, 380, 369, 356, 337, -1, 339, -1, 347, 342, -1, 344, -1, 346, -1, -1, 355, 354, 351, -1, 353, -1, -1, -1, -1, 362, 359, -1, 361, -1, -1, 364, -1, 368, 367, -1, -1, -1, 371, -1, 379, 376, 375, -1, -1, 378, -1, -1, -1, 416, 401, 390, 385, -1, 387, -1, 389, -1, -1, 392, -1, 398, 395, -1, 397, -1, -1, 400, -1, -1, 411, 404, -1, 406, -1, 410, 409, -1, -1, -1, 415, 414, -1, -1, -1, 446, 419, -1, 427, 426, 423, -1, 425, -1, -1, -1, 437, 436, 435, 432, -1, 434, -1, -1, -1, -1, 445, 444, 443, 442, -1, -1, -1, -1, -1, 474, 461, 458, 453, 452, -1, -1, 457, 456, -1, -1, -1, 460, -1, -1, 473, 472, 471, 470, 467, -1, 469, -1, -1, -1, -1, -1, -1, -1], "threshold": [0.5, 0.5, 0.5, 0.5, -2.0, 0.5, -2.0, 0.5, -2.0, 0.5, 0.5, 0.5, -2.0, -2.0, -2.0, -2.0, -2.0, 0.5, 0.5, 0.5, 0.5, 0.5, -2.0, 0.5, 0.5, -2.0, 0.5, -2.0, 0.5, -2.0, 0.5, -2.0, -2.0, 0.5, 0.5, 0.5, -2.0, 0.5, -2.0, -2.0, 0.5, -2.0, -2.0, -2.0, 0.5, -2.0, 0.5, 0.5, -2.0, 0.5, -2.0, -2.0, -2.0, 0.5, 0.5, 0.5, -2.0, 0.5, 0.5, -2.0, 0.5, -2.0, -2.0, -2.0, 0.5, 0.5, -2.0, -2.0, 0.5, -2.0, -2.0, 0.5, -2.0, -2.0, 0.5, 0.5, -2.0, 0.5, -2.0, -2.0, 0.5, 0.5, -2.0, -2.0, 0.5, 0.5, 0.5, -2.0, -2.0, -2.0, -2.0, 0.5, 0.5, -2.0, 0.5, 0.5, -2.0, 0.5, -2.0, 0.5, -2.0, 0.5, -2.0, -2.0, 0.5, -2.0, 0.5, -2.0, -2.0, 0.5, 0.5, 0.5, 0.5, -2.0, 0.5, -2.0, 0.5, -2.0, -2.0, 0.5, -2.0, 0.5, -2.0, -2.0, 0.5, 0.5, 0.5, -2.0, -2.0, -2.0, -2.0, 0.5, 0.5, -2.0, -2.0, 0.5, 0.5, 0.5, 0.5, 0.5, -2.0, -2.0, -2.0, -2.0, 0.5, 0.5, -2.0, 0.5, -2.0, -2.0, -2.0, -2.0, 0.5, 0.5, 0.5, 0.5, 0.5, -2.0, 0.5, 0.5, -2.0, -2.0, 0.5, 0.5, -2.0, -2.0, -2.0, 0.5, 0.5, 0.5, -2.0, 0.5, -2.0, -2.0, 0.5, -2.0, -2.0, -2.0, 0.5, 0.5, 0.5, 0.5, -2.0, 0.5, -2.0, 0.5, -2.0, -2.0, 0.5, 0.5, -2.0, 0.5, -2.0, -2.0, -2.0, -2.0, 0.5, 0.5, 0.5, -2.0, -2.0, -2.0, 0.5, -2.0, 0.5, 0.5, -2.0, -2.0, -2.0, 0.5, 0.5, 0.5, 0.5, -2.0, 0.5, 0.5, -2.0, 0.5, 0.5, -2.0, -2.0, -2.0, 0.5, 0.5, -2.0, 0.5, -2.0, -2.0, -2.0, 0.5, -2.0, 0.5, 0.5, -2.0, -2.0, 0.5, 0.5, 0.5, 0.5, 0.5, 0.5, 0.5, -2.0, -2.0, 0.5, -2.0, -2.0, -2.0, -2.0, -2.0, -2.0, -2.0, 0.5, 0.5, 0.5, 0.5, 0.5, 0.5, -2.0, -2.0, -2.0, 0.5, 0.5, -2.0, 0.5, 0.5, 0.5, -2.0, -2.0, -2.0, -2.0, -2.0, -2.0, -2.0, 0.5, 0.5, -2.0, -2.0, -2.0, 0.5, 0.5, 0.5, 0.5, 0.5, -2.0, 0.5, -2.0, -2.0, -2.0, 0.5, 0.5, 0.5, -2.0, -2.0, -2.0, 0.5, 0.5, 0.5, -2.0, -2.0, -2.0, -2.0, 0.5, 0.5, 0.5, 0.5, -2.0, -2.0, -2.0, -2.0, -2.0, 0.5, 0.5, 0.5, 0.5, 0.5, -2.0, 0.5, -2.0, -2.0, -2.0, -2.0, 0.5, 0.5, 0.5, 0.5, -2.0, -2.0, -2.0, -2.0, -2.0, -2.0, 0.5, 0.5, 0.5, 0.5, -2.0, 0.5, -2.0, 0.5, 0.5, -2.0, 0.5, -2.0, 0.5, -2.0, -2.0, 0.5, 0.5, 0.5, -2.0, 0.5, -2.0, -2.0, -2.0, -2.0, 0.5, 0.5, -2.0, 0.5, -2.0, -2.0, 0.5, -2.0, 0.5, 0.5, -2.0, -2.0, -2.0, 0.5, -2.0, 0.5, 0.5, 0.5, -2.0, -2.0, 0.5, -2.0, -2.0, -2.0, 0.5, 0.5, 0.5, 0.5, -2.0, 0.5, -2.0, 0.5, -2.0, -2.0, 0.5, -2.0, 0.5, 0.5, -2.0, 0.5, -2.0, -2.0, 0.5, -2.0, -2.0, 0.5, 0.5, -2.0, 0.5, -2.0, 0.5, 0.5, -2.0, -2.0, -2.0, 0.5, 0.5, -2.0, -2.0, -2.0, 0.5, 0.5, -2.0, 0.5, 0.5, 0.5, -2.0, 0.5, -2.0, -2.0, -2.0, 0.5, 0.5, 0.5, 0.5, -2.0, 0.5, -2.0, -2.0, -2.0, -2.0, 0.5, 0.5, 0.5, 0.5, -2.0, -2.0, -2.0, -2.0, -2.0, 0.5, 0.5, 0.5, 0.5, 0.5, -2.0, -2.0, 0.5, 0.5, -2.0, -2.0, -2.0, 0.5, -2.0, -2.0, 0.5, 0.5, 0.5, 0.5, 0.5, -2.0, 0.5, -2.0, -2.0, -2.0, -2.0, -2.0, -2.0, -2.0], "feature": [2, 12, 8, 10, -2, 1, -2, 13, -2, 20, 11, 9, -2, -2, -2, -2, -2, 22, 19, 7, 14, 16, -2, 9, 15, -2, 13, -2, 6, -2, 20, -2, -2, 8, 17, 5, -2, 21, -2, -2, 13, -2, -2, -2, 1, -2, 10, 11, -2, 8, -2, -2, -2, 20, 5, 4, -2, 17, 15, -2, 11, -2, -2, -2, 8, 13, -2, -2, 1, -2, -2, 8, -2, -2, 17, 13, -2, 14, -2, -2, 16, 11, -2, -2, 8, 0, 13, -2, -2, -2, -2, 16, 1, -2, 5, 15, -2, 4, -2, 10, -2, 6, -2, -2, 17, -2, 3, -2, -2, 9, 5, 20, 11, -2, 13, -2, 17, -2, -2, 13, -2, 0, -2, -2, 10, 7, 15, -2, -2, -2, -2, 17, 8, -2, -2, 19, 4, 14, 15, 7, -2, -2, -2, -2, 3, 8, -2, 21, -2, -2, -2, -2, 8, 13, 4, 17, 22, -2, 11, 12, -2, -2, 3, 14, -2, -2, -2, 18, 7, 16, -2, 5, -2, -2, 22, -2, -2, -2, 22, 14, 15, 16, -2, 20, -2, 18, -2, -2, 7, 12, -2, 16, -2, -2, -2, -2, 10, 9, 12, -2, -2, -2, 3, -2, 16, 15, -2, -2, -2, 22, 7, 11, 12, -2, 6, 15, -2, 10, 9, -2, -2, -2, 10, 5, -2, 0, -2, -2, -2, 12, -2, 16, 0, -2, -2, 21, 0, 6, 14, 4, 5, 17, -2, -2, 17, -2, -2, -2, -2, -2, -2, -2, 1, 20, 18, 5, 0, 10, -2, -2, -2, 17, 4, -2, 14, 10, 21, -2, -2, -2, -2, -2, -2, -2, 12, 6, -2, -2, -2, 5, 11, 4, 17, 0, -2, 9, -2, -2, -2, 9, 18, 16, -2, -2, -2, 17, 3, 12, -2, -2, -2, -2, 6, 16, 21, 15, -2, -2, -2, -2, -2, 7, 9, 11, 18, 4, -2, 17, -2, -2, -2, -2, 11, 16, 14, 1, -2, -2, -2, -2, -2, -2, 16, 19, 7, 12, -2, 11, -2, 6, 10, -2, 22, -2, 5, -2, -2, 10, 4, 9, -2, 21, -2, -2, -2, -2, 0, 6, -2, 11, -2, -2, 15, -2, 22, 9, -2, -2, -2, 11, -2, 20, 22, 6, 